<?xml version="1.0"?>
<opencv_storage>
	<haarcascade_profileface type_id="opencv-haar-classifier">
		<size>20 20</size>
		<stages>
			<_>
				<!-- stage 0 -->
				<trees>
					<_>
						<!-- tree 0 -->
						<_>
							<feature>
								<rects>
									<_>2 7 16 4 -1</_>
									<_>2 9 16 2 2</_>
								</rects>
								<tilted>0</tilted>
							</feature>
							<threshold>0.00432723</threshold>
							<left_val>0.0383819</left_val>
							<right_val>-1</right_val>
							<left_idx>-1</left_idx>
							<right_idx>1</right_idx>
						</_>
						<_>
							<feature>
								<rects>
									<_>8 4 3 14 -1</_>
									<_>8 11 3 7 2</_>
								</rects>
								<tilted>0</tilted>
							</feature>
							<threshold>0.0130762</threshold>
							<left_val>0.896526</left_val>
							<right_val>0.262931</right_val>
							<left_idx>-1</left_idx>
							<right_idx>-1</right_idx>
						</_>
					</_>
					<_>
						<!-- tree 1 -->
						<_>
							<feature>
								<rects>
									<_>13 6 1 6 -1</_>
									<_>13 9 1 3 2</_>
								</rects>
								<tilted>0</tilted>
							</feature>
							<threshold>0.000524346</threshold>
							<left_val>0.102166</left_val>
							<right_val>-1</right_val>
							<left_idx>-1</left_idx>
							<right_idx>1</right_idx>
						</_>
						<_>
							<feature>
								<rects>
									<_>4 2 12 8 -1</_>
									<_>8 2 4 8 3</_>
								</rects>
								<tilted>0</tilted>
							</feature>
							<threshold>0.0044573</threshold>
							<left_val>0.12384</left_val>
							<right_val>0.691038</right_val>
							<left_idx>-1</left_idx>
							<right_idx>-1</right_idx>
						</_>
					</_>
					<_>
						<!-- tree 2 -->
						<_>
							<feature>
								<rects>
									<_>6 3 1 9 -1</_>
									<_>6 6 1 3 3</_>
								</rects>
								<tilted>0</tilted>
							</feature>
							<threshold>-0.000927083</threshold>
							<left_val>-1</left_val>
							<right_val>0.19537</right_val>
							<left_idx>1</left_idx>
							<right_idx>-1</right_idx>
						</_>
						<_>
							<feature>
								<rects>
									<_>3 7 14 9 -1</_>
									<_>3 10 14 3 3</_>
								</rects>
								<tilted>0</tilted>
							</feature>
							<threshold>0.000339891</threshold>
							<left_val>0.210144</left_val>
							<right_val>0.825867</right_val>
							<left_idx>-1</left_idx>
							<right_idx>-1</right_idx>
						</_>
					</_>
				</trees>
				<stage_threshold>0.350592</stage_threshold>
				<parent>-1</parent>
				<next>-1</next>
			</_>
			<_>
				<!-- stage 1 -->
				<trees>
					<_>
						<!-- tree 0 -->
						<_>
							<feature>
								<rects>
									<_>4 7 4 4 -1</_>
									<_>4 9 4 2 2</_>
								</rects>
								<tilted>0</tilted>
							</feature>
							<threshold>0.00230257</threshold>
							<left_val>0.101838</left_val>
							<right_val>-1</right_val>
							<left_idx>-1</left_idx>
							<right_idx>1</right_idx>
						</_>
						<_>
							<feature>
								<rects>
									<_>9 4 2 16 -1</_>
									<_>9 12 2 8 2</_>
								</rects>
								<tilted>0</tilted>
							</feature>
							<threshold>0.00441743</threshold>
							<left_val>0.821906</left_val>
							<right_val>0.195655</right_val>
							<left_idx>-1</left_idx>
							<right_idx>-1</right_idx>
						</_>
					</_>
					<_>
						<!-- tree 1 -->
						<_>
							<feature>
								<rects>
									<_>1 1 18 5 -1</_>
									<_>7 1 6 5 3</_>
								</rects>
								<tilted>0</tilted>
							</feature>
							<threshold>0.0222032</threshold>
							<left_val>0.220541</left_val>
							<right_val>-1</right_val>
							<left_idx>-1</left_idx>
							<right_idx>1</right_idx>
						</_>
						<_>
							<feature>
								<rects>
									<_>4 5 13 8 -1</_>
									<_>4 9 13 4 2</_>
								</rects>
								<tilted>0</tilted>
							</feature>
							<threshold>-0.000172831</threshold>
							<left_val>0.0732633</left_val>
							<right_val>0.593148</right_val>
							<left_idx>-1</left_idx>
							<right_idx>-1</right_idx>
						</_>
					</_>
					<_>
						<!-- tree 2 -->
						<_>
							<feature>
								<rects>
									<_>1 7 16 9 -1</_>
									<_>1 10 16 3 3</_>
								</rects>
								<tilted>0</tilted>
							</feature>
							<threshold>0.00435673</threshold>
							<left_val>0.184411</left_val>
							<right_val>-1</right_val>
							<left_idx>-1</left_idx>
							<right_idx>1</right_idx>
						</_>
						<_>
							<feature>
								<rects>
									<_>2 0 15 4 -1</_>
									<_>2 2 15 2 2</_>
								</rects>
								<tilted>0</tilted>
							</feature>
							<threshold>-0.00260329</threshold>
							<left_val>0.403221</left_val>
							<right_val>0.806652</right_val>
							<left_idx>-1</left_idx>
							<right_idx>-1</right_idx>
						</_>
					</_>
					<_>
						<!-- tree 3 -->
						<_>
							<feature>
								<rects>
									<_>7 5 6 4 -1</_>
									<_>9 5 2 4 3</_>
								</rects>
								<tilted>0</tilted>
							</feature>
							<threshold>0.00173096</threshold>
							<left_val>0.254833</left_val>
							<right_val>-1</right_val>
							<left_idx>-1</left_idx>
							<right_idx>1</right_idx>
						</_>
						<_>
							<feature>
								<rects>
									<_>6 3 8 9 -1</_>
									<_>6 6 8 3 3</_>
								</rects>
								<tilted>0</tilted>
							</feature>
							<threshold>-0.00781464</threshold>
							<left_val>0.605707</left_val>
							<right_val>0.277906</right_val>
							<left_idx>-1</left_idx>
							<right_idx>-1</right_idx>
						</_>
					</_>
					<_>
						<!-- tree 4 -->
						<_>
							<feature>
								<rects>
									<_>8 12 3 8 -1</_>
									<_>8 16 3 4 2</_>
								</rects>
								<tilted>0</tilted>
							</feature>
							<threshold>-0.00873434</threshold>
							<left_val>0.288998</left_val>
							<right_val>-1</right_val>
							<left_idx>-1</left_idx>
							<right_idx>1</right_idx>
						</_>
						<_>
							<feature>
								<rects>
									<_>3 16 2 2 -1</_>
									<_>3 17 2 1 2</_>
								</rects>
								<tilted>0</tilted>
							</feature>
							<threshold>0.000945223</threshold>
							<left_val>0.761659</left_val>
							<right_val>0.349564</right_val>
							<left_idx>-1</left_idx>
							<right_idx>-1</right_idx>
						</_>
					</_>
					<_>
						<!-- tree 5 -->
						<_>
							<feature>
								<rects>
									<_>14 1 6 12 -1</_>
									<_>14 1 3 12 2</_>
								</rects>
								<tilted>0</tilted>
							</feature>
							<threshold>0.0494149</threshold>
							<left_val>-1</left_val>
							<right_val>0.815165</right_val>
							<left_idx>1</left_idx>
							<right_idx>-1</right_idx>
						</_>
						<_>
							<feature>
								<rects>
									<_>4 4 12 6 -1</_>
									<_>8 4 4 6 3</_>
								</rects>
								<tilted>0</tilted>
							</feature>
							<threshold>0.00448918</threshold>
							<left_val>0.280878</left_val>
							<right_val>0.602777</right_val>
							<left_idx>-1</left_idx>
							<right_idx>-1</right_idx>
						</_>
					</_>
					<_>
						<!-- tree 6 -->
						<_>
							<feature>
								<rects>
									<_>0 2 6 15 -1</_>
									<_>3 2 3 15 2</_>
								</rects>
								<tilted>0</tilted>
							</feature>
							<threshold>0.0603136</threshold>
							<left_val>-1</left_val>
							<right_val>0.76075</right_val>
							<left_idx>1</left_idx>
							<right_idx>-1</right_idx>
						</_>
						<_>
							<feature>
								<rects>
									<_>5 4 9 6 -1</_>
									<_>5 6 9 2 3</_>
								</rects>
								<tilted>0</tilted>
							</feature>
							<threshold>-0.00107629</threshold>
							<left_val>0.444404</left_val>
							<right_val>0.143731</right_val>
							<left_idx>-1</left_idx>
							<right_idx>-1</right_idx>
						</_>
					</_>
					<_>
						<!-- tree 7 -->
						<_>
							<feature>
								<rects>
									<_>13 11 6 3 -1</_>
									<_>13 12 6 1 3</_>
								</rects>
								<tilted>0</tilted>
							</feature>
							<threshold>-0.00950832</threshold>
							<left_val>-1</left_val>
							<right_val>0.531817</right_val>
							<left_idx>1</left_idx>
							<right_idx>-1</right_idx>
						</_>
						<_>
							<feature>
								<rects>
									<_>12 12 6 4 -1</_>
									<_>12 14 6 2 2</_>
								</rects>
								<tilted>0</tilted>
							</feature>
							<threshold>0.00766013</threshold>
							<left_val>0.541105</left_val>
							<right_val>0.218069</right_val>
							<left_idx>-1</left_idx>
							<right_idx>-1</right_idx>
						</_>
					</_>
					<_>
						<!-- tree 8 -->
						<_>
							<feature>
								<rects>
									<_>1 11 6 3 -1</_>
									<_>1 12 6 1 3</_>
								</rects>
								<tilted>0</tilted>
							</feature>
							<threshold>0.00764677</threshold>
							<left_val>-1</left_val>
							<right_val>0.115896</right_val>
							<left_idx>1</left_idx>
							<right_idx>-1</right_idx>
						</_>
						<_>
							<feature>
								<rects>
									<_>2 5 5 8 -1</_>
									<_>2 9 5 4 2</_>
								</rects>
								<tilted>0</tilted>
							</feature>
							<threshold>-0.000846629</threshold>
							<left_val>0.234068</left_val>
							<right_val>0.599038</right_val>
							<left_idx>-1</left_idx>
							<right_idx>-1</right_idx>
						</_>
					</_>
				</trees>
				<stage_threshold>3.47208</stage_threshold>
				<parent>0</parent>
				<next>-1</next>
			</_>
			<_>
				<!-- stage 2 -->
				<trees>
					<_>
						<!-- tree 0 -->
						<_>
							<feature>
								<rects>
									<_>5 4 10 4 -1</_>
									<_>5 6 10 2 2</_>
								</rects>
								<tilted>0</tilted>
							</feature>
							<threshold>-0.00485062</threshold>
							<left_val>-1</left_val>
							<right_val>0.18055</right_val>
							<left_idx>1</left_idx>
							<right_idx>-1</right_idx>
						</_>
						<_>
							<feature>
								<rects>
									<_>2 4 16 12 -1</_>
									<_>2 8 16 4 3</_>
								</rects>
								<tilted>0</tilted>
							</feature>
							<threshold>-0.00461417</threshold>
							<left_val>0.217789</left_val>
							<right_val>0.801824</right_val>
							<left_idx>-1</left_idx>
							<right_idx>-1</right_idx>
						</_>
					</_>
					<_>
						<!-- tree 1 -->
						<_>
							<feature>
								<rects>
									<_>4 5 12 6 -1</_>
									<_>8 5 4 6 3</_>
								</rects>
								<tilted>0</tilted>
							</feature>
							<threshold>-0.00243013</threshold>
							<left_val>0.114135</left_val>
							<right_val>-1</right_val>
							<left_idx>-1</left_idx>
							<right_idx>1</right_idx>
						</_>
						<_>
							<feature>
								<rects>
									<_>13 7 2 9 -1</_>
									<_>13 10 2 3 3</_>
								</rects>
								<tilted>0</tilted>
							</feature>
							<threshold>0.00041788</threshold>
							<left_val>0.120309</left_val>
							<right_val>0.610853</right_val>
							<left_idx>-1</left_idx>
							<right_idx>-1</right_idx>
						</_>
					</_>
					<_>
						<!-- tree 2 -->
						<_>
							<feature>
								<rects>
									<_>5 7 2 9 -1</_>
									<_>5 10 2 3 3</_>
								</rects>
								<tilted>0</tilted>
							</feature>
							<threshold>0.00100109</threshold>
							<left_val>0.207996</left_val>
							<right_val>-1</right_val>
							<left_idx>-1</left_idx>
							<right_idx>1</right_idx>
						</_>
						<_>
							<feature>
								<rects>
									<_>7 1 6 8 -1</_>
									<_>9 1 2 8 3</_>
								</rects>
								<tilted>0</tilted>
							</feature>
							<threshold>0.00105771</threshold>
							<left_val>0.330205</left_val>
							<right_val>0.751109</right_val>
							<left_idx>-1</left_idx>
							<right_idx>-1</right_idx>
						</_>
					</_>
					<_>
						<!-- tree 3 -->
						<_>
							<feature>
								<rects>
									<_>12 0 4 12 -1</_>
									<_>14 0 2 6 2</_>
									<_>12 6 2 6 2</_>
								</rects>
								<tilted>0</tilted>
							</feature>
							<threshold>0.00123765</threshold>
							<left_val>-1</left_val>
							<right_val>0.276822</right_val>
							<left_idx>1</left_idx>
							<right_idx>-1</right_idx>
						</_>
						<_>
							<feature>
								<rects>
									<_>5 8 10 2 -1</_>
									<_>5 9 10 1 2</_>
								</rects>
								<tilted>0</tilted>
							</feature>
							<threshold>0.00035315</threshold>
							<left_val>0.166829</left_val>
							<right_val>0.582948</right_val>
							<left_idx>-1</left_idx>
							<right_idx>-1</right_idx>
						</_>
					</_>
					<_>
						<!-- tree 4 -->
						<_>
							<feature>
								<rects>
									<_>5 1 6 4 -1</_>
									<_>7 1 2 4 3</_>
								</rects>
								<tilted>0</tilted>
							</feature>
							<threshold>-0.0119537</threshold>
							<left_val>0.150879</left_val>
							<right_val>-1</right_val>
							<left_idx>-1</left_idx>
							<right_idx>1</right_idx>
						</_>
						<_>
							<feature>
								<rects>
									<_>0 3 9 12 -1</_>
									<_>3 3 3 12 3</_>
								</rects>
								<tilted>0</tilted>
							</feature>
							<threshold>0.0014183</threshold>
							<left_val>0.439123</left_val>
							<right_val>0.76466</right_val>
							<left_idx>-1</left_idx>
							<right_idx>-1</right_idx>
						</_>
					</_>
					<_>
						<!-- tree 5 -->
						<_>
							<feature>
								<rects>
									<_>9 8 3 12 -1</_>
									<_>9 12 3 4 3</_>
								</rects>
								<tilted>0</tilted>
							</feature>
							<threshold>0.0034643</threshold>
							<left_val>-1</left_val>
							<right_val>0.265156</right_val>
							<left_idx>1</left_idx>
							<right_idx>-1</right_idx>
						</_>
						<_>
							<feature>
								<rects>
									<_>0 5 20 15 -1</_>
									<_>0 10 20 5 3</_>
								</rects>
								<tilted>0</tilted>
							</feature>
							<threshold>-0.014949</threshold>
							<left_val>0.229805</left_val>
							<right_val>0.544217</right_val>
							<left_idx>-1</left_idx>
							<right_idx>-1</right_idx>
						</_>
					</_>
					<_>
						<!-- tree 6 -->
						<_>
							<feature>
								<rects>
									<_>2 2 6 8 -1</_>
									<_>2 2 3 4 2</_>
									<_>5 6 3 4 2</_>
								</rects>
								<tilted>0</tilted>
							</feature>
							<threshold>-0.00105068</threshold>
							<left_val>-1</left_val>
							<right_val>0.362284</right_val>
							<left_idx>1</left_idx>
							<right_idx>-1</right_idx>
						</_>
						<_>
							<feature>
								<rects>
									<_>2 1 6 2 -1</_>
									<_>2 2 6 1 2</_>
								</rects>
								<tilted>0</tilted>
							</feature>
							<threshold>-0.00407829</threshold>
							<left_val>0.260126</left_val>
							<right_val>0.723366</right_val>
							<left_idx>-1</left_idx>
							<right_idx>-1</right_idx>
						</_>
					</_>
					<_>
						<!-- tree 7 -->
						<_>
							<feature>
								<rects>
									<_>10 15 6 4 -1</_>
									<_>13 15 3 2 2</_>
									<_>10 17 3 2 2</_>
								</rects>
								<tilted>0</tilted>
							</feature>
							<threshold>0.000542428</threshold>
							<left_val>0.384968</left_val>
							<right_val>-1</right_val>
							<left_idx>-1</left_idx>
							<right_idx>1</right_idx>
						</_>
						<_>
							<feature>
								<rects>
									<_>12 14 2 6 -1</_>
									<_>12 16 2 2 3</_>
								</rects>
								<tilted>0</tilted>
							</feature>
							<threshold>-0.00732041</threshold>
							<left_val>0.296551</left_val>
							<right_val>0.548031</right_val>
							<left_idx>-1</left_idx>
							<right_idx>-1</right_idx>
						</_>
					</_>
					<_>
						<!-- tree 8 -->
						<_>
							<feature>
								<rects>
									<_>5 15 4 4 -1</_>
									<_>5 15 2 2 2</_>
									<_>7 17 2 2 2</_>
								</rects>
								<tilted>0</tilted>
							</feature>
							<threshold>0.00114213</threshold>
							<left_val>0.410477</left_val>
							<right_val>-1</right_val>
							<left_idx>-1</left_idx>
							<right_idx>1</right_idx>
						</_>
						<_>
							<feature>
								<rects>
									<_>7 18 1 2 -1</_>
									<_>7 19 1 1 2</_>
								</rects>
								<tilted>0</tilted>
							</feature>
							<threshold>0.00117834</threshold>
							<left_val>0.723902</left_val>
							<right_val>0.278728</right_val>
							<left_idx>-1</left_idx>
							<right_idx>-1</right_idx>
						</_>
					</_>
					<_>
						<!-- tree 9 -->
						<_>
							<feature>
								<rects>
									<_>4 5 12 10 -1</_>
									<_>10 5 6 5 2</_>
									<_>4 10 6 5 2</_>
								</rects>
								<tilted>0</tilted>
							</feature>
							<threshold>0.0440771</threshold>
							<left_val>0.564052</left_val>
							<right_val>-1</right_val>
							<left_idx>-1</left_idx>
							<right_idx>1</right_idx>
						</_>
						<_>
							<feature>
								<rects>
									<_>7 4 8 12 -1</_>
									<_>11 4 4 6 2</_>
									<_>7 10 4 6 2</_>
								</rects>
								<tilted>0</tilted>
							</feature>
							<threshold>0.00379001</threshold>
							<left_val>0.594755</left_val>
							<right_val>0.331202</right_val>
							<left_idx>-1</left_idx>
							<right_idx>-1</right_idx>
						</_>
					</_>
					<_>
						<!-- tree 10 -->
						<_>
							<feature>
								<rects>
									<_>9 11 2 3 -1</_>
									<_>9 12 2 1 3</_>
								</rects>
								<tilted>0</tilted>
							</feature>
							<threshold>-0.00242914</threshold>
							<left_val>0.660323</left_val>
							<right_val>-1</right_val>
							<left_idx>-1</left_idx>
							<right_idx>1</right_idx>
						</_>
						<_>
							<feature>
								<rects>
									<_>3 3 12 12 -1</_>
									<_>3 3 6 6 2</_>
									<_>9 9 6 6 2</_>
								</rects>
								<tilted>0</tilted>
							</feature>
							<threshold>0.00942623</threshold>
							<left_val>0.468067</left_val>
							<right_val>0.206434</right_val>
							<left_idx>-1</left_idx>
							<right_idx>-1</right_idx>
						</_>
					</_>
					<_>
						<!-- tree 11 -->
						<_>
							<feature>
								<rects>
									<_>15 11 5 3 -1</_>
									<_>15 12 5 1 3</_>
								</rects>
								<tilted>0</tilted>
							</feature>
							<threshold>0.00806303</threshold>
							<left_val>0.529885</left_val>
							<right_val>-1</right_val>
							<left_idx>-1</left_idx>
							<right_idx>1</right_idx>
						</_>
						<_>
							<feature>
								<rects>
									<_>10 18 3 2 -1</_>
									<_>11 18 1 2 3</_>
								</rects>
								<tilted>0</tilted>
							</feature>
							<threshold>0.00522408</threshold>
							<left_val>0.52816</left_val>
							<right_val>0.190955</right_val>
							<left_idx>-1</left_idx>
							<right_idx>-1</right_idx>
						</_>
					</_>
					<_>
						<!-- tree 12 -->
						<_>
							<feature>
								<rects>
									<_>0 11 5 3 -1</_>
									<_>0 12 5 1 3</_>
								</rects>
								<tilted>0</tilted>
							</feature>
							<threshold>-0.00706306</threshold>
							<left_val>0.138065</left_val>
							<right_val>-1</right_val>
							<left_idx>-1</left_idx>
							<right_idx>1</right_idx>
						</_>
						<_>
							<feature>
								<rects>
									<_>7 18 3 2 -1</_>
									<_>8 18 1 2 3</_>
								</rects>
								<tilted>0</tilted>
							</feature>
							<threshold>0.00568975</threshold>
							<left_val>0.549064</left_val>
							<right_val>0.126028</right_val>
							<left_idx>-1</left_idx>
							<right_idx>-1</right_idx>
						</_>
					</_>
					<_>
						<!-- tree 13 -->
						<_>
							<feature>
								<rects>
									<_>2 8 16 2 -1</_>
									<_>2 9 16 1 2</_>
								</rects>
								<tilted>0</tilted>
							</feature>
							<threshold>0.00124729</threshold>
							<left_val>0.237266</left_val>
							<right_val>-1</right_val>
							<left_idx>-1</left_idx>
							<right_idx>1</right_idx>
						</_>
						<_>
							<feature>
								<rects>
									<_>9 6 5 12 -1</_>
									<_>9 12 5 6 2</_>
								</rects>
								<tilted>0</tilted>
							</feature>
							<threshold>0.0495435</threshold>
							<left_val>0.524017</left_val>
							<right_val>0.176922</right_val>
							<left_idx>-1</left_idx>
							<right_idx>-1</right_idx>
						</_>
					</_>
				</trees>
				<stage_threshold>5.98439</stage_threshold>
				<parent>1</parent>
				<next>-1</next>
			</_>
			<_>
				<!-- stage 3 -->
				<trees>
					<_>
						<!-- tree 0 -->
						<_>
							<feature>
								<rects>
									<_>6 3 8 6 -1</_>
									<_>6 6 8 3 2</_>
								</rects>
								<tilted>0</tilted>
							</feature>
							<threshold>-0.00493261</threshold>
							<left_val>-1</left_val>
							<right_val>0.199806</right_val>
							<left_idx>1</left_idx>
							<right_idx>-1</right_idx>
						</_>
						<_>
							<feature>
								<rects>
									<_>4 7 12 2 -1</_>
									<_>8 7 4 2 3</_>
								</rects>
								<tilted>0</tilted>
							</feature>
							<threshold>2.79181e-005</threshold>
							<left_val>0.229938</left_val>
							<right_val>0.739321</right_val>
							<left_idx>-1</left_idx>
							<right_idx>-1</right_idx>
						</_>
					</_>
					<_>
						<!-- tree 1 -->
						<_>
							<feature>
								<rects>
									<_>10 9 6 8 -1</_>
									<_>10 13 6 4 2</_>
								</rects>
								<tilted>0</tilted>
							</feature>
							<threshold>0.00308762</threshold>
							<left_val>-1</left_val>
							<right_val>0.153384</right_val>
							<left_idx>1</left_idx>
							<right_idx>-1</right_idx>
						</_>
						<_>
							<feature>
								<rects>
									<_>12 5 3 10 -1</_>
									<_>12 10 3 5 2</_>
								</rects>
								<tilted>0</tilted>
							</feature>
							<threshold>7.46697e-006</threshold>
							<left_val>0.203686</left_val>
							<right_val>0.585492</right_val>
							<left_idx>-1</left_idx>
							<right_idx>-1</right_idx>
						</_>
					</_>
					<_>
						<!-- tree 2 -->
						<_>
							<feature>
								<rects>
									<_>4 6 3 9 -1</_>
									<_>4 9 3 3 3</_>
								</rects>
								<tilted>0</tilted>
							</feature>
							<threshold>0.00187397</threshold>
							<left_val>0.20499</left_val>
							<right_val>-1</right_val>
							<left_idx>-1</left_idx>
							<right_idx>1</right_idx>
						</_>
						<_>
							<feature>
								<rects>
									<_>7 4 6 4 -1</_>
									<_>9 4 2 4 3</_>
								</rects>
								<tilted>0</tilted>
							</feature>
							<threshold>0.000933803</threshold>
							<left_val>0.32342</left_val>
							<right_val>0.732301</right_val>
							<left_idx>-1</left_idx>
							<right_idx>-1</right_idx>
						</_>
					</_>
					<_>
						<!-- tree 3 -->
						<_>
							<feature>
								<rects>
									<_>12 3 8 3 -1</_>
									<_>12 3 4 3 2</_>
								</rects>
								<tilted>0</tilted>
							</feature>
							<threshold>0.00191519</threshold>
							<left_val>0.304515</left_val>
							<right_val>-1</right_val>
							<left_idx>-1</left_idx>
							<right_idx>1</right_idx>
						</_>
						<_>
							<feature>
								<rects>
									<_>15 0 3 6 -1</_>
									<_>15 3 3 3 2</_>
								</rects>
								<tilted>0</tilted>
							</feature>
							<threshold>-0.00596838</threshold>
							<left_val>0.293213</left_val>
							<right_val>0.56213</right_val>
							<left_idx>-1</left_idx>
							<right_idx>-1</right_idx>
						</_>
					</_>
					<_>
						<!-- tree 4 -->
						<_>
							<feature>
								<rects>
									<_>2 12 10 8 -1</_>
									<_>2 12 5 4 2</_>
									<_>7 16 5 4 2</_>
								</rects>
								<tilted>0</tilted>
							</feature>
							<threshold>-0.000721156</threshold>
							<left_val>0.365804</left_val>
							<right_val>-1</right_val>
							<left_idx>-1</left_idx>
							<right_idx>1</right_idx>
						</_>
						<_>
							<feature>
								<rects>
									<_>5 5 6 8 -1</_>
									<_>5 9 6 4 2</_>
								</rects>
								<tilted>0</tilted>
							</feature>
							<threshold>-0.00596631</threshold>
							<left_val>0.271216</left_val>
							<right_val>0.722633</right_val>
							<left_idx>-1</left_idx>
							<right_idx>-1</right_idx>
						</_>
					</_>
					<_>
						<!-- tree 5 -->
						<_>
							<feature>
								<rects>
									<_>12 3 8 3 -1</_>
									<_>12 3 4 3 2</_>
								</rects>
								<tilted>0</tilted>
							</feature>
							<threshold>0.0308742</threshold>
							<left_val>0.441984</left_val>
							<right_val>-1</right_val>
							<left_idx>-1</left_idx>
							<right_idx>1</right_idx>
						</_>
						<_>
							<feature>
								<rects>
									<_>15 0 3 6 -1</_>
									<_>15 3 3 3 2</_>
								</rects>
								<tilted>0</tilted>
							</feature>
							<threshold>-0.0110997</threshold>
							<left_val>0.361298</left_val>
							<right_val>0.525145</right_val>
							<left_idx>-1</left_idx>
							<right_idx>-1</right_idx>
						</_>
					</_>
					<_>
						<!-- tree 6 -->
						<_>
							<feature>
								<rects>
									<_>0 3 8 3 -1</_>
									<_>4 3 4 3 2</_>
								</rects>
								<tilted>0</tilted>
							</feature>
							<threshold>0.00211642</threshold>
							<left_val>0.362862</left_val>
							<right_val>-1</right_val>
							<left_idx>-1</left_idx>
							<right_idx>1</right_idx>
						</_>
						<_>
							<feature>
								<rects>
									<_>2 1 4 4 -1</_>
									<_>2 3 4 2 2</_>
								</rects>
								<tilted>0</tilted>
							</feature>
							<threshold>-0.00943174</threshold>
							<left_val>0.16011</left_val>
							<right_val>0.705228</right_val>
							<left_idx>-1</left_idx>
							<right_idx>-1</right_idx>
						</_>
					</_>
					<_>
						<!-- tree 7 -->
						<_>
							<feature>
								<rects>
									<_>10 2 3 2 -1</_>
									<_>11 2 1 2 3</_>
								</rects>
								<tilted>0</tilted>
							</feature>
							<threshold>-0.0035266</threshold>
							<left_val>0.130129</left_val>
							<right_val>-1</right_val>
							<left_idx>-1</left_idx>
							<right_idx>1</right_idx>
						</_>
						<_>
							<feature>
								<rects>
									<_>10 3 3 1 -1</_>
									<_>11 3 1 1 3</_>
								</rects>
								<tilted>0</tilted>
							</feature>
							<threshold>-0.00169076</threshold>
							<left_val>0.178632</left_val>
							<right_val>0.552153</right_val>
							<left_idx>-1</left_idx>
							<right_idx>-1</right_idx>
						</_>
					</_>
					<_>
						<!-- tree 8 -->
						<_>
							<feature>
								<rects>
									<_>7 15 3 4 -1</_>
									<_>7 17 3 2 2</_>
								</rects>
								<tilted>0</tilted>
							</feature>
							<threshold>0.000464709</threshold>
							<left_val>0.348738</left_val>
							<right_val>-1</right_val>
							<left_idx>-1</left_idx>
							<right_idx>1</right_idx>
						</_>
						<_>
							<feature>
								<rects>
									<_>4 13 3 6 -1</_>
									<_>4 15 3 2 3</_>
								</rects>
								<tilted>0</tilted>
							</feature>
							<threshold>-0.0102156</threshold>
							<left_val>0.267399</left_val>
							<right_val>0.666792</right_val>
							<left_idx>-1</left_idx>
							<right_idx>-1</right_idx>
						</_>
					</_>
					<_>
						<!-- tree 9 -->
						<_>
							<feature>
								<rects>
									<_>10 5 1 14 -1</_>
									<_>10 12 1 7 2</_>
								</rects>
								<tilted>0</tilted>
							</feature>
							<threshold>0.00126347</threshold>
							<left_val>-1</left_val>
							<right_val>0.343786</right_val>
							<left_idx>1</left_idx>
							<right_idx>-1</right_idx>
						</_>
						<_>
							<feature>
								<rects>
									<_>5 4 10 6 -1</_>
									<_>5 6 10 2 3</_>
								</rects>
								<tilted>0</tilted>
							</feature>
							<threshold>-0.0118753</threshold>
							<left_val>0.599534</left_val>
							<right_val>0.349772</right_val>
							<left_idx>-1</left_idx>
							<right_idx>-1</right_idx>
						</_>
					</_>
					<_>
						<!-- tree 10 -->
						<_>
							<feature>
								<rects>
									<_>5 0 6 3 -1</_>
									<_>7 0 2 3 3</_>
								</rects>
								<tilted>0</tilted>
							</feature>
							<threshold>-0.0107323</threshold>
							<left_val>0.215049</left_val>
							<right_val>-1</right_val>
							<left_idx>-1</left_idx>
							<right_idx>1</right_idx>
						</_>
						<_>
							<feature>
								<rects>
									<_>6 0 3 5 -1</_>
									<_>7 0 1 5 3</_>
								</rects>
								<tilted>0</tilted>
							</feature>
							<threshold>0.00718365</threshold>
							<left_val>0.627144</left_val>
							<right_val>0.251954</right_val>
							<left_idx>-1</left_idx>
							<right_idx>-1</right_idx>
						</_>
					</_>
					<_>
						<!-- tree 11 -->
						<_>
							<feature>
								<rects>
									<_>7 15 6 5 -1</_>
									<_>9 15 2 5 3</_>
								</rects>
								<tilted>0</tilted>
							</feature>
							<threshold>-0.0283409</threshold>
							<left_val>0.0824119</left_val>
							<right_val>-1</right_val>
							<left_idx>-1</left_idx>
							<right_idx>1</right_idx>
						</_>
						<_>
							<feature>
								<rects>
									<_>9 10 2 6 -1</_>
									<_>9 12 2 2 3</_>
								</rects>
								<tilted>0</tilted>
							</feature>
							<threshold>-0.000458132</threshold>
							<left_val>0.591006</left_val>
							<right_val>0.37052</right_val>
							<left_idx>-1</left_idx>
							<right_idx>-1</right_idx>
						</_>
					</_>
					<_>
						<!-- tree 12 -->
						<_>
							<feature>
								<rects>
									<_>8 17 3 2 -1</_>
									<_>9 17 1 2 3</_>
								</rects>
								<tilted>0</tilted>
							</feature>
							<threshold>0.00429403</threshold>
							<left_val>-1</left_val>
							<right_val>0.159473</right_val>
							<left_idx>1</left_idx>
							<right_idx>-1</right_idx>
						</_>
						<_>
							<feature>
								<rects>
									<_>1 12 7 6 -1</_>
									<_>1 14 7 2 3</_>
								</rects>
								<tilted>0</tilted>
							</feature>
							<threshold>0.0107511</threshold>
							<left_val>0.598048</left_val>
							<right_val>0.283251</right_val>
							<left_idx>-1</left_idx>
							<right_idx>-1</right_idx>
						</_>
					</_>
					<_>
						<!-- tree 13 -->
						<_>
							<feature>
								<rects>
									<_>9 6 3 7 -1</_>
									<_>10 6 1 7 3</_>
								</rects>
								<tilted>0</tilted>
							</feature>
							<threshold>0.0224651</threshold>
							<left_val>-1</left_val>
							<right_val>0.787709</right_val>
							<left_idx>1</left_idx>
							<right_idx>-1</right_idx>
						</_>
						<_>
							<feature>
								<rects>
									<_>16 3 4 9 -1</_>
									<_>16 6 4 3 3</_>
								</rects>
								<tilted>0</tilted>
							</feature>
							<threshold>-0.0579885</threshold>
							<left_val>0.155574</left_val>
							<right_val>0.523966</right_val>
							<left_idx>-1</left_idx>
							<right_idx>-1</right_idx>
						</_>
					</_>
					<_>
						<!-- tree 14 -->
						<_>
							<feature>
								<rects>
									<_>8 6 3 7 -1</_>
									<_>9 6 1 7 3</_>
								</rects>
								<tilted>0</tilted>
							</feature>
							<threshold>0.00721109</threshold>
							<left_val>-1</left_val>
							<right_val>0.662037</right_val>
							<left_idx>1</left_idx>
							<right_idx>-1</right_idx>
						</_>
						<_>
							<feature>
								<rects>
									<_>0 5 18 8 -1</_>
									<_>0 5 9 4 2</_>
									<_>9 9 9 4 2</_>
								</rects>
								<tilted>0</tilted>
							</feature>
							<threshold>-0.0483676</threshold>
							<left_val>0.142472</left_val>
							<right_val>0.442983</right_val>
							<left_idx>-1</left_idx>
							<right_idx>-1</right_idx>
						</_>
					</_>
					<_>
						<!-- tree 15 -->
						<_>
							<feature>
								<rects>
									<_>13 5 2 10 -1</_>
									<_>13 10 2 5 2</_>
								</rects>
								<tilted>0</tilted>
							</feature>
							<threshold>-0.0144181</threshold>
							<left_val>0.158854</left_val>
							<right_val>-1</right_val>
							<left_idx>-1</left_idx>
							<right_idx>1</right_idx>
						</_>
						<_>
							<feature>
								<rects>
									<_>12 10 2 6 -1</_>
									<_>12 13 2 3 2</_>
								</rects>
								<tilted>0</tilted>
							</feature>
							<threshold>-0.0231564</threshold>
							<left_val>0.23758</left_val>
							<right_val>0.521713</right_val>
							<left_idx>-1</left_idx>
							<right_idx>-1</right_idx>
						</_>
					</_>
					<_>
						<!-- tree 16 -->
						<_>
							<feature>
								<rects>
									<_>7 0 3 5 -1</_>
									<_>8 0 1 5 3</_>
								</rects>
								<tilted>0</tilted>
							</feature>
							<threshold>0.00769853</threshold>
							<left_val>-1</left_val>
							<right_val>0.194173</right_val>
							<left_idx>1</left_idx>
							<right_idx>-1</right_idx>
						</_>
						<_>
							<feature>
								<rects>
									<_>6 5 8 6 -1</_>
									<_>6 7 8 2 3</_>
								</rects>
								<tilted>0</tilted>
							</feature>
							<threshold>-0.00562486</threshold>
							<left_val>0.627841</left_val>
							<right_val>0.374604</right_val>
							<left_idx>-1</left_idx>
							<right_idx>-1</right_idx>
						</_>
					</_>
					<_>
						<!-- tree 17 -->
						<_>
							<feature>
								<rects>
									<_>10 3 6 14 -1</_>
									<_>13 3 3 7 2</_>
									<_>10 10 3 7 2</_>
								</rects>
								<tilted>0</tilted>
							</feature>
							<threshold>-0.000729367</threshold>
							<left_val>-1</left_val>
							<right_val>0.384092</right_val>
							<left_idx>1</left_idx>
							<right_idx>-1</right_idx>
						</_>
						<_>
							<feature>
								<rects>
									<_>13 5 1 8 -1</_>
									<_>13 9 1 4 2</_>
								</rects>
								<tilted>0</tilted>
							</feature>
							<threshold>0.000617839</threshold>
							<left_val>0.310649</left_val>
							<right_val>0.553785</right_val>
							<left_idx>-1</left_idx>
							<right_idx>-1</right_idx>
						</_>
					</_>
					<_>
						<!-- tree 18 -->
						<_>
							<feature>
								<rects>
									<_>4 3 6 14 -1</_>
									<_>4 3 3 7 2</_>
									<_>7 10 3 7 2</_>
								</rects>
								<tilted>0</tilted>
							</feature>
							<threshold>-4.58039e-005</threshold>
							<left_val>-1</left_val>
							<right_val>0.344445</right_val>
							<left_idx>1</left_idx>
							<right_idx>-1</right_idx>
						</_>
						<_>
							<feature>
								<rects>
									<_>6 5 1 8 -1</_>
									<_>6 9 1 4 2</_>
								</rects>
								<tilted>0</tilted>
							</feature>
							<threshold>-1.47194e-005</threshold>
							<left_val>0.272955</left_val>
							<right_val>0.642895</right_val>
							<left_idx>-1</left_idx>
							<right_idx>-1</right_idx>
						</_>
					</_>
				</trees>
				<stage_threshold>8.51169</stage_threshold>
				<parent>2</parent>
				<next>-1</next>
			</_>
			<_>
				<!-- stage 4 -->
				<trees>
					<_>
						<!-- tree 0 -->
						<_>
							<feature>
								<rects>
									<_>8 1 1 6 -1</_>
									<_>8 3 1 2 3</_>
								</rects>
								<tilted>0</tilted>
							</feature>
							<threshold>-0.00134694</threshold>
							<left_val>0.165709</left_val>
							<right_val>-1</right_val>
							<left_idx>-1</left_idx>
							<right_idx>1</right_idx>
						</_>
						<_>
							<feature>
								<rects>
									<_>2 0 15 2 -1</_>
									<_>2 1 15 1 2</_>
								</rects>
								<tilted>0</tilted>
							</feature>
							<threshold>-0.00247748</threshold>
							<left_val>0.227385</left_val>
							<right_val>0.698935</right_val>
							<left_idx>-1</left_idx>
							<right_idx>-1</right_idx>
						</_>
					</_>
					<_>
						<!-- tree 1 -->
						<_>
							<feature>
								<rects>
									<_>0 7 20 6 -1</_>
									<_>0 9 20 2 3</_>
								</rects>
								<tilted>0</tilted>
							</feature>
							<threshold>0.00526328</threshold>
							<left_val>0.151207</left_val>
							<right_val>-1</right_val>
							<left_idx>-1</left_idx>
							<right_idx>1</right_idx>
						</_>
						<_>
							<feature>
								<rects>
									<_>10 10 6 8 -1</_>
									<_>10 14 6 4 2</_>
								</rects>
								<tilted>0</tilted>
							</feature>
							<threshold>0.00490753</threshold>
							<left_val>0.556447</left_val>
							<right_val>0.160544</right_val>
							<left_idx>-1</left_idx>
							<right_idx>-1</right_idx>
						</_>
					</_>
					<_>
						<!-- tree 2 -->
						<_>
							<feature>
								<rects>
									<_>7 1 3 2 -1</_>
									<_>8 1 1 2 3</_>
								</rects>
								<tilted>0</tilted>
							</feature>
							<threshold>-0.00232543</threshold>
							<left_val>0.188026</left_val>
							<right_val>-1</right_val>
							<left_idx>-1</left_idx>
							<right_idx>1</right_idx>
						</_>
						<_>
							<feature>
								<rects>
									<_>8 1 2 2 -1</_>
									<_>9 1 1 2 2</_>
								</rects>
								<tilted>0</tilted>
							</feature>
							<threshold>-0.00146655</threshold>
							<left_val>0.31225</left_val>
							<right_val>0.71654</right_val>
							<left_idx>-1</left_idx>
							<right_idx>-1</right_idx>
						</_>
					</_>
					<_>
						<!-- tree 3 -->
						<_>
							<feature>
								<rects>
									<_>4 3 12 9 -1</_>
									<_>4 6 12 3 3</_>
								</rects>
								<tilted>0</tilted>
							</feature>
							<threshold>-0.123117</threshold>
							<left_val>-1</left_val>
							<right_val>0.385958</right_val>
							<left_idx>1</left_idx>
							<right_idx>-1</right_idx>
						</_>
						<_>
							<feature>
								<rects>
									<_>6 5 9 5 -1</_>
									<_>9 5 3 5 3</_>
								</rects>
								<tilted>0</tilted>
							</feature>
							<threshold>0.00221083</threshold>
							<left_val>0.245529</left_val>
							<right_val>0.569571</right_val>
							<left_idx>-1</left_idx>
							<right_idx>-1</right_idx>
						</_>
					</_>
					<_>
						<!-- tree 4 -->
						<_>
							<feature>
								<rects>
									<_>5 5 9 5 -1</_>
									<_>8 5 3 5 3</_>
								</rects>
								<tilted>0</tilted>
							</feature>
							<threshold>0.00206615</threshold>
							<left_val>0.271652</left_val>
							<right_val>-1</right_val>
							<left_idx>-1</left_idx>
							<right_idx>1</right_idx>
						</_>
						<_>
							<feature>
								<rects>
									<_>4 6 6 12 -1</_>
									<_>4 10 6 4 3</_>
								</rects>
								<tilted>0</tilted>
							</feature>
							<threshold>0.000361303</threshold>
							<left_val>0.229336</left_val>
							<right_val>0.720863</right_val>
							<left_idx>-1</left_idx>
							<right_idx>-1</right_idx>
						</_>
					</_>
					<_>
						<!-- tree 5 -->
						<_>
							<feature>
								<rects>
									<_>13 0 6 18 -1</_>
									<_>13 0 3 18 2</_>
								</rects>
								<tilted>0</tilted>
							</feature>
							<threshold>0.0799579</threshold>
							<left_val>-1</left_val>
							<right_val>0.783362</right_val>
							<left_idx>1</left_idx>
							<right_idx>-1</right_idx>
						</_>
						<_>
							<feature>
								<rects>
									<_>10 8 1 12 -1</_>
									<_>10 12 1 4 3</_>
								</rects>
								<tilted>0</tilted>
							</feature>
							<threshold>0.00260647</threshold>
							<left_val>0.554523</left_val>
							<right_val>0.255069</right_val>
							<left_idx>-1</left_idx>
							<right_idx>-1</right_idx>
						</_>
					</_>
					<_>
						<!-- tree 6 -->
						<_>
							<feature>
								<rects>
									<_>3 2 6 10 -1</_>
									<_>3 2 3 5 2</_>
									<_>6 7 3 5 2</_>
								</rects>
								<tilted>0</tilted>
							</feature>
							<threshold>0.0065699</threshold>
							<left_val>-1</left_val>
							<right_val>0.181939</right_val>
							<left_idx>1</left_idx>
							<right_idx>-1</right_idx>
						</_>
						<_>
							<feature>
								<rects>
									<_>1 2 4 6 -1</_>
									<_>3 2 2 6 2</_>
								</rects>
								<tilted>0</tilted>
							</feature>
							<threshold>0.00162596</threshold>
							<left_val>0.352988</left_val>
							<right_val>0.655282</right_val>
							<left_idx>-1</left_idx>
							<right_idx>-1</right_idx>
						</_>
					</_>
					<_>
						<!-- tree 7 -->
						<_>
							<feature>
								<rects>
									<_>9 18 3 2 -1</_>
									<_>10 18 1 2 3</_>
								</rects>
								<tilted>0</tilted>
							</feature>
							<threshold>0.0036205</threshold>
							<left_val>0.546231</left_val>
							<right_val>-1</right_val>
							<left_idx>-1</left_idx>
							<right_idx>1</right_idx>
						</_>
						<_>
							<feature>
								<rects>
									<_>10 18 3 2 -1</_>
									<_>11 18 1 2 3</_>
								</rects>
								<tilted>0</tilted>
							</feature>
							<threshold>-0.0044392</threshold>
							<left_val>0.135984</left_val>
							<right_val>0.541582</right_val>
							<left_idx>-1</left_idx>
							<right_idx>-1</right_idx>
						</_>
					</_>
					<_>
						<!-- tree 8 -->
						<_>
							<feature>
								<rects>
									<_>2 8 2 6 -1</_>
									<_>2 10 2 2 3</_>
								</rects>
								<tilted>0</tilted>
							</feature>
							<threshold>-0.00905409</threshold>
							<left_val>0.111512</left_val>
							<right_val>-1</right_val>
							<left_idx>-1</left_idx>
							<right_idx>1</right_idx>
						</_>
						<_>
							<feature>
								<rects>
									<_>7 5 6 6 -1</_>
									<_>7 7 6 2 3</_>
								</rects>
								<tilted>0</tilted>
							</feature>
							<threshold>-0.000460675</threshold>
							<left_val>0.584672</left_val>
							<right_val>0.259835</right_val>
							<left_idx>-1</left_idx>
							<right_idx>-1</right_idx>
						</_>
					</_>
					<_>
						<!-- tree 9 -->
						<_>
							<feature>
								<rects>
									<_>7 19 6 1 -1</_>
									<_>9 19 2 1 3</_>
								</rects>
								<tilted>0</tilted>
							</feature>
							<threshold>-0.0056621</threshold>
							<left_val>0.161057</left_val>
							<right_val>-1</right_val>
							<left_idx>-1</left_idx>
							<right_idx>1</right_idx>
						</_>
						<_>
							<feature>
								<rects>
									<_>10 18 3 2 -1</_>
									<_>11 18 1 2 3</_>
								</rects>
								<tilted>0</tilted>
							</feature>
							<threshold>0.00511658</threshold>
							<left_val>0.537668</left_val>
							<right_val>0.173946</right_val>
							<left_idx>-1</left_idx>
							<right_idx>-1</right_idx>
						</_>
					</_>
					<_>
						<!-- tree 10 -->
						<_>
							<feature>
								<rects>
									<_>8 3 3 1 -1</_>
									<_>9 3 1 1 3</_>
								</rects>
								<tilted>0</tilted>
							</feature>
							<threshold>-0.00213623</threshold>
							<left_val>0.190207</left_val>
							<right_val>-1</right_val>
							<left_idx>-1</left_idx>
							<right_idx>1</right_idx>
						</_>
						<_>
							<feature>
								<rects>
									<_>2 2 16 2 -1</_>
									<_>2 2 8 1 2</_>
									<_>10 3 8 1 2</_>
								</rects>
								<tilted>0</tilted>
							</feature>
							<threshold>-0.00548099</threshold>
							<left_val>0.327201</left_val>
							<right_val>0.636484</right_val>
							<left_idx>-1</left_idx>
							<right_idx>-1</right_idx>
						</_>
					</_>
					<_>
						<!-- tree 11 -->
						<_>
							<feature>
								<rects>
									<_>8 11 5 3 -1</_>
									<_>8 12 5 1 3</_>
								</rects>
								<tilted>0</tilted>
							</feature>
							<threshold>-0.00810619</threshold>
							<left_val>0.691485</left_val>
							<right_val>-1</right_val>
							<left_idx>-1</left_idx>
							<right_idx>1</right_idx>
						</_>
						<_>
							<feature>
								<rects>
									<_>7 13 6 3 -1</_>
									<_>7 14 6 1 3</_>
								</rects>
								<tilted>0</tilted>
							</feature>
							<threshold>0.00600487</threshold>
							<left_val>0.432733</left_val>
							<right_val>0.696384</right_val>
							<left_idx>-1</left_idx>
							<right_idx>-1</right_idx>
						</_>
					</_>
					<_>
						<!-- tree 12 -->
						<_>
							<feature>
								<rects>
									<_>0 1 6 15 -1</_>
									<_>2 1 2 15 3</_>
								</rects>
								<tilted>0</tilted>
							</feature>
							<threshold>-0.0870285</threshold>
							<left_val>0.859413</left_val>
							<right_val>-1</right_val>
							<left_idx>-1</left_idx>
							<right_idx>1</right_idx>
						</_>
						<_>
							<feature>
								<rects>
									<_>2 12 2 3 -1</_>
									<_>2 13 2 1 3</_>
								</rects>
								<tilted>0</tilted>
							</feature>
							<threshold>-0.00478096</threshold>
							<left_val>0.0973945</left_val>
							<right_val>0.458703</right_val>
							<left_idx>-1</left_idx>
							<right_idx>-1</right_idx>
						</_>
					</_>
					<_>
						<!-- tree 13 -->
						<_>
							<feature>
								<rects>
									<_>16 13 1 3 -1</_>
									<_>16 14 1 1 3</_>
								</rects>
								<tilted>0</tilted>
							</feature>
							<threshold>-0.00221667</threshold>
							<left_val>0.255463</left_val>
							<right_val>-1</right_val>
							<left_idx>-1</left_idx>
							<right_idx>1</right_idx>
						</_>
						<_>
							<feature>
								<rects>
									<_>13 7 6 4 -1</_>
									<_>16 7 3 2 2</_>
									<_>13 9 3 2 2</_>
								</rects>
								<tilted>0</tilted>
							</feature>
							<threshold>0.00136427</threshold>
							<left_val>0.331909</left_val>
							<right_val>0.59641</right_val>
							<left_idx>-1</left_idx>
							<right_idx>-1</right_idx>
						</_>
					</_>
					<_>
						<!-- tree 14 -->
						<_>
							<feature>
								<rects>
									<_>7 13 3 6 -1</_>
									<_>7 16 3 3 2</_>
								</rects>
								<tilted>0</tilted>
							</feature>
							<threshold>-0.00900779</threshold>
							<left_val>0.266659</left_val>
							<right_val>-1</right_val>
							<left_idx>-1</left_idx>
							<right_idx>1</right_idx>
						</_>
						<_>
							<feature>
								<rects>
									<_>7 5 1 14 -1</_>
									<_>7 12 1 7 2</_>
								</rects>
								<tilted>0</tilted>
							</feature>
							<threshold>-0.0154941</threshold>
							<left_val>0.184819</left_val>
							<right_val>0.624597</right_val>
							<left_idx>-1</left_idx>
							<right_idx>-1</right_idx>
						</_>
					</_>
					<_>
						<!-- tree 15 -->
						<_>
							<feature>
								<rects>
									<_>15 12 2 3 -1</_>
									<_>15 13 2 1 3</_>
								</rects>
								<tilted>0</tilted>
							</feature>
							<threshold>-0.0042165</threshold>
							<left_val>-1</left_val>
							<right_val>0.537993</right_val>
							<left_idx>1</left_idx>
							<right_idx>-1</right_idx>
						</_>
						<_>
							<feature>
								<rects>
									<_>10 5 3 14 -1</_>
									<_>10 12 3 7 2</_>
								</rects>
								<tilted>0</tilted>
							</feature>
							<threshold>0.0432498</threshold>
							<left_val>0.518303</left_val>
							<right_val>0.217042</right_val>
							<left_idx>-1</left_idx>
							<right_idx>-1</right_idx>
						</_>
					</_>
					<_>
						<!-- tree 16 -->
						<_>
							<feature>
								<rects>
									<_>6 10 2 6 -1</_>
									<_>6 13 2 3 2</_>
								</rects>
								<tilted>0</tilted>
							</feature>
							<threshold>0.000287865</threshold>
							<left_val>-1</left_val>
							<right_val>0.261338</right_val>
							<left_idx>1</left_idx>
							<right_idx>-1</right_idx>
						</_>
						<_>
							<feature>
								<rects>
									<_>6 5 1 8 -1</_>
									<_>6 9 1 4 2</_>
								</rects>
								<tilted>0</tilted>
							</feature>
							<threshold>0.00123732</threshold>
							<left_val>0.278653</left_val>
							<right_val>0.590899</right_val>
							<left_idx>-1</left_idx>
							<right_idx>-1</right_idx>
						</_>
					</_>
					<_>
						<!-- tree 17 -->
						<_>
							<feature>
								<rects>
									<_>13 11 2 1 -1</_>
									<_>13 11 1 1 2</_>
								</rects>
								<tilted>0</tilted>
							</feature>
							<threshold>0.00195283</threshold>
							<left_val>-1</left_val>
							<right_val>0.261287</right_val>
							<left_idx>1</left_idx>
							<right_idx>-1</right_idx>
						</_>
						<_>
							<feature>
								<rects>
									<_>12 1 6 10 -1</_>
									<_>15 1 3 5 2</_>
									<_>12 6 3 5 2</_>
								</rects>
								<tilted>0</tilted>
							</feature>
							<threshold>-0.00149471</threshold>
							<left_val>0.591541</left_val>
							<right_val>0.345578</right_val>
							<left_idx>-1</left_idx>
							<right_idx>-1</right_idx>
						</_>
					</_>
					<_>
						<!-- tree 18 -->
						<_>
							<feature>
								<rects>
									<_>3 12 2 3 -1</_>
									<_>3 13 2 1 3</_>
								</rects>
								<tilted>0</tilted>
							</feature>
							<threshold>0.00358787</threshold>
							<left_val>-1</left_val>
							<right_val>0.158705</right_val>
							<left_idx>1</left_idx>
							<right_idx>-1</right_idx>
						</_>
						<_>
							<feature>
								<rects>
									<_>9 18 2 1 -1</_>
									<_>10 18 1 1 2</_>
								</rects>
								<tilted>0</tilted>
							</feature>
							<threshold>-0.00259387</threshold>
							<left_val>0.127041</left_val>
							<right_val>0.597943</right_val>
							<left_idx>-1</left_idx>
							<right_idx>-1</right_idx>
						</_>
					</_>
				</trees>
				<stage_threshold>8.46792</stage_threshold>
				<parent>3</parent>
				<next>-1</next>
			</_>
			<_>
				<!-- stage 5 -->
				<trees>
					<_>
						<!-- tree 0 -->
						<_>
							<feature>
								<rects>
									<_>1 0 17 9 -1</_>
									<_>1 3 17 3 3</_>
								</rects>
								<tilted>0</tilted>
							</feature>
							<threshold>0.00358107</threshold>
							<left_val>0.19951</left_val>
							<right_val>-1</right_val>
							<left_idx>-1</left_idx>
							<right_idx>1</right_idx>
						</_>
						<_>
							<feature>
								<rects>
									<_>1 2 8 8 -1</_>
									<_>1 2 4 4 2</_>
									<_>5 6 4 4 2</_>
								</rects>
								<tilted>0</tilted>
							</feature>
							<threshold>-0.00285524</threshold>
							<left_val>0.737307</left_val>
							<right_val>0.292174</right_val>
							<left_idx>-1</left_idx>
							<right_idx>-1</right_idx>
						</_>
					</_>
					<_>
						<!-- tree 1 -->
						<_>
							<feature>
								<rects>
									<_>9 5 6 4 -1</_>
									<_>9 5 3 4 2</_>
								</rects>
								<tilted>0</tilted>
							</feature>
							<threshold>0.00197585</threshold>
							<left_val>0.195642</left_val>
							<right_val>-1</right_val>
							<left_idx>-1</left_idx>
							<right_idx>1</right_idx>
						</_>
						<_>
							<feature>
								<rects>
									<_>10 9 7 10 -1</_>
									<_>10 14 7 5 2</_>
								</rects>
								<tilted>0</tilted>
							</feature>
							<threshold>0.00325831</threshold>
							<left_val>0.569205</left_val>
							<right_val>0.183906</right_val>
							<left_idx>-1</left_idx>
							<right_idx>-1</right_idx>
						</_>
					</_>
					<_>
						<!-- tree 2 -->
						<_>
							<feature>
								<rects>
									<_>5 5 6 4 -1</_>
									<_>8 5 3 4 2</_>
								</rects>
								<tilted>0</tilted>
							</feature>
							<threshold>0.000237117</threshold>
							<left_val>0.217167</left_val>
							<right_val>-1</right_val>
							<left_idx>-1</left_idx>
							<right_idx>1</right_idx>
						</_>
						<_>
							<feature>
								<rects>
									<_>0 7 20 6 -1</_>
									<_>0 9 20 2 3</_>
								</rects>
								<tilted>0</tilted>
							</feature>
							<threshold>0.00259425</threshold>
							<left_val>0.271999</left_val>
							<right_val>0.715024</right_val>
							<left_idx>-1</left_idx>
							<right_idx>-1</right_idx>
						</_>
					</_>
					<_>
						<!-- tree 3 -->
						<_>
							<feature>
								<rects>
									<_>6 5 9 10 -1</_>
									<_>6 10 9 5 2</_>
								</rects>
								<tilted>0</tilted>
							</feature>
							<threshold>-0.0250324</threshold>
							<left_val>0.182518</left_val>
							<right_val>-1</right_val>
							<left_idx>-1</left_idx>
							<right_idx>1</right_idx>
						</_>
						<_>
							<feature>
								<rects>
									<_>8 4 4 12 -1</_>
									<_>8 10 4 6 2</_>
								</rects>
								<tilted>0</tilted>
							</feature>
							<threshold>0.00630879</threshold>
							<left_val>0.569984</left_val>
							<right_val>0.350985</right_val>
							<left_idx>-1</left_idx>
							<right_idx>-1</right_idx>
						</_>
					</_>
					<_>
						<!-- tree 4 -->
						<_>
							<feature>
								<rects>
									<_>6 6 8 3 -1</_>
									<_>6 7 8 1 3</_>
								</rects>
								<tilted>0</tilted>
							</feature>
							<threshold>-0.00324949</threshold>
							<left_val>-1</left_val>
							<right_val>0.402393</right_val>
							<left_idx>1</left_idx>
							<right_idx>-1</right_idx>
						</_>
						<_>
							<feature>
								<rects>
									<_>3 13 10 6 -1</_>
									<_>3 13 5 3 2</_>
									<_>8 16 5 3 2</_>
								</rects>
								<tilted>0</tilted>
							</feature>
							<threshold>-0.0148857</threshold>
							<left_val>0.36041</left_val>
							<right_val>0.7292</right_val>
							<left_idx>-1</left_idx>
							<right_idx>-1</right_idx>
						</_>
					</_>
					<_>
						<!-- tree 5 -->
						<_>
							<feature>
								<rects>
									<_>15 1 4 11 -1</_>
									<_>15 1 2 11 2</_>
								</rects>
								<tilted>0</tilted>
							</feature>
							<threshold>0.00806232</threshold>
							<left_val>-1</left_val>
							<right_val>0.649149</right_val>
							<left_idx>1</left_idx>
							<right_idx>-1</right_idx>
						</_>
						<_>
							<feature>
								<rects>
									<_>5 7 10 10 -1</_>
									<_>10 7 5 5 2</_>
									<_>5 12 5 5 2</_>
								</rects>
								<tilted>0</tilted>
							</feature>
							<threshold>0.0274057</threshold>
							<left_val>0.551899</left_val>
							<right_val>0.265968</right_val>
							<left_idx>-1</left_idx>
							<right_idx>-1</right_idx>
						</_>
					</_>
					<_>
						<!-- tree 6 -->
						<_>
							<feature>
								<rects>
									<_>1 1 4 11 -1</_>
									<_>3 1 2 11 2</_>
								</rects>
								<tilted>0</tilted>
							</feature>
							<threshold>0.0343686</threshold>
							<left_val>-1</left_val>
							<right_val>0.671251</right_val>
							<left_idx>1</left_idx>
							<right_idx>-1</right_idx>
						</_>
						<_>
							<feature>
								<rects>
									<_>1 5 8 12 -1</_>
									<_>1 11 8 6 2</_>
								</rects>
								<tilted>0</tilted>
							</feature>
							<threshold>-0.027293</threshold>
							<left_val>0.169138</left_val>
							<right_val>0.432628</right_val>
							<left_idx>-1</left_idx>
							<right_idx>-1</right_idx>
						</_>
					</_>
					<_>
						<!-- tree 7 -->
						<_>
							<feature>
								<rects>
									<_>13 7 6 4 -1</_>
									<_>16 7 3 2 2</_>
									<_>13 9 3 2 2</_>
								</rects>
								<tilted>0</tilted>
							</feature>
							<threshold>0.000744521</threshold>
							<left_val>0.34051</left_val>
							<right_val>-1</right_val>
							<left_idx>-1</left_idx>
							<right_idx>1</right_idx>
						</_>
						<_>
							<feature>
								<rects>
									<_>11 10 7 4 -1</_>
									<_>11 12 7 2 2</_>
								</rects>
								<tilted>0</tilted>
							</feature>
							<threshold>0.000703363</threshold>
							<left_val>0.551679</left_val>
							<right_val>0.331139</right_val>
							<left_idx>-1</left_idx>
							<right_idx>-1</right_idx>
						</_>
					</_>
					<_>
						<!-- tree 8 -->
						<_>
							<feature>
								<rects>
									<_>0 4 20 12 -1</_>
									<_>0 4 10 6 2</_>
									<_>10 10 10 6 2</_>
								</rects>
								<tilted>0</tilted>
							</feature>
							<threshold>-0.122755</threshold>
							<left_val>0.167532</left_val>
							<right_val>-1</right_val>
							<left_idx>-1</left_idx>
							<right_idx>1</right_idx>
						</_>
						<_>
							<feature>
								<rects>
									<_>1 5 6 15 -1</_>
									<_>1 10 6 5 3</_>
								</rects>
								<tilted>0</tilted>
							</feature>
							<threshold>0.00325599</threshold>
							<left_val>0.361575</left_val>
							<right_val>0.642078</right_val>
							<left_idx>-1</left_idx>
							<right_idx>-1</right_idx>
						</_>
					</_>
					<_>
						<!-- tree 9 -->
						<_>
							<feature>
								<rects>
									<_>11 10 3 8 -1</_>
									<_>11 14 3 4 2</_>
								</rects>
								<tilted>0</tilted>
							</feature>
							<threshold>-0.0320904</threshold>
							<left_val>0.292108</left_val>
							<right_val>-1</right_val>
							<left_idx>-1</left_idx>
							<right_idx>1</right_idx>
						</_>
						<_>
							<feature>
								<rects>
									<_>11 12 7 6 -1</_>
									<_>11 14 7 2 3</_>
								</rects>
								<tilted>0</tilted>
							</feature>
							<threshold>0.0032958</threshold>
							<left_val>0.561303</left_val>
							<right_val>0.335786</right_val>
							<left_idx>-1</left_idx>
							<right_idx>-1</right_idx>
						</_>
					</_>
					<_>
						<!-- tree 10 -->
						<_>
							<feature>
								<rects>
									<_>9 11 2 3 -1</_>
									<_>9 12 2 1 3</_>
								</rects>
								<tilted>0</tilted>
							</feature>
							<threshold>-0.00322732</threshold>
							<left_val>0.697064</left_val>
							<right_val>-1</right_val>
							<left_idx>-1</left_idx>
							<right_idx>1</right_idx>
						</_>
						<_>
							<feature>
								<rects>
									<_>8 13 4 3 -1</_>
									<_>8 14 4 1 3</_>
								</rects>
								<tilted>0</tilted>
							</feature>
							<threshold>0.00111717</threshold>
							<left_val>0.354115</left_val>
							<right_val>0.614401</right_val>
							<left_idx>-1</left_idx>
							<right_idx>-1</right_idx>
						</_>
					</_>
					<_>
						<!-- tree 11 -->
						<_>
							<feature>
								<rects>
									<_>3 14 14 4 -1</_>
									<_>10 14 7 2 2</_>
									<_>3 16 7 2 2</_>
								</rects>
								<tilted>0</tilted>
							</feature>
							<threshold>-0.01728</threshold>
							<left_val>-1</left_val>
							<right_val>0.553718</right_val>
							<left_idx>1</left_idx>
							<right_idx>-1</right_idx>
						</_>
						<_>
							<feature>
								<rects>
									<_>18 7 2 4 -1</_>
									<_>18 9 2 2 2</_>
								</rects>
								<tilted>0</tilted>
							</feature>
							<threshold>0.0117412</threshold>
							<left_val>0.534196</left_val>
							<right_val>0.27571</right_val>
							<left_idx>-1</left_idx>
							<right_idx>-1</right_idx>
						</_>
					</_>
					<_>
						<!-- tree 12 -->
						<_>
							<feature>
								<rects>
									<_>3 12 6 6 -1</_>
									<_>3 14 6 2 3</_>
								</rects>
								<tilted>0</tilted>
							</feature>
							<threshold>0.00464052</threshold>
							<left_val>-1</left_val>
							<right_val>0.248952</right_val>
							<left_idx>1</left_idx>
							<right_idx>-1</right_idx>
						</_>
						<_>
							<feature>
								<rects>
									<_>0 4 3 6 -1</_>
									<_>0 6 3 2 3</_>
								</rects>
								<tilted>0</tilted>
							</feature>
							<threshold>-0.016913</threshold>
							<left_val>0.171193</left_val>
							<right_val>0.552395</right_val>
							<left_idx>-1</left_idx>
							<right_idx>-1</right_idx>
						</_>
					</_>
					<_>
						<!-- tree 13 -->
						<_>
							<feature>
								<rects>
									<_>9 14 3 3 -1</_>
									<_>9 15 3 1 3</_>
								</rects>
								<tilted>0</tilted>
							</feature>
							<threshold>0.0100602</threshold>
							<left_val>-1</left_val>
							<right_val>0.827345</right_val>
							<left_idx>1</left_idx>
							<right_idx>-1</right_idx>
						</_>
						<_>
							<feature>
								<rects>
									<_>10 7 10 4 -1</_>
									<_>15 7 5 2 2</_>
									<_>10 9 5 2 2</_>
								</rects>
								<tilted>0</tilted>
							</feature>
							<threshold>-0.000607155</threshold>
							<left_val>0.377939</left_val>
							<right_val>0.547625</right_val>
							<left_idx>-1</left_idx>
							<right_idx>-1</right_idx>
						</_>
					</_>
					<_>
						<!-- tree 14 -->
						<_>
							<feature>
								<rects>
									<_>7 2 6 8 -1</_>
									<_>7 6 6 4 2</_>
								</rects>
								<tilted>0</tilted>
							</feature>
							<threshold>-0.00108654</threshold>
							<left_val>-1</left_val>
							<right_val>0.329654</right_val>
							<left_idx>1</left_idx>
							<right_idx>-1</right_idx>
						</_>
						<_>
							<feature>
								<rects>
									<_>6 3 6 2 -1</_>
									<_>8 3 2 2 3</_>
								</rects>
								<tilted>0</tilted>
							</feature>
							<threshold>0.00893621</threshold>
							<left_val>0.606288</left_val>
							<right_val>0.243422</right_val>
							<left_idx>-1</left_idx>
							<right_idx>-1</right_idx>
						</_>
					</_>
					<_>
						<!-- tree 15 -->
						<_>
							<feature>
								<rects>
									<_>10 6 3 5 -1</_>
									<_>11 6 1 5 3</_>
								</rects>
								<tilted>0</tilted>
							</feature>
							<threshold>-0.000263727</threshold>
							<left_val>-1</left_val>
							<right_val>0.381409</right_val>
							<left_idx>1</left_idx>
							<right_idx>-1</right_idx>
						</_>
						<_>
							<feature>
								<rects>
									<_>9 0 6 19 -1</_>
									<_>11 0 2 19 3</_>
								</rects>
								<tilted>0</tilted>
							</feature>
							<threshold>0.0131101</threshold>
							<left_val>0.551762</left_val>
							<right_val>0.372689</right_val>
							<left_idx>-1</left_idx>
							<right_idx>-1</right_idx>
						</_>
					</_>
					<_>
						<!-- tree 16 -->
						<_>
							<feature>
								<rects>
									<_>3 12 1 2 -1</_>
									<_>3 13 1 1 2</_>
								</rects>
								<tilted>0</tilted>
							</feature>
							<threshold>-0.00298063</threshold>
							<left_val>0.122966</left_val>
							<right_val>-1</right_val>
							<left_idx>-1</left_idx>
							<right_idx>1</right_idx>
						</_>
						<_>
							<feature>
								<rects>
									<_>7 14 5 3 -1</_>
									<_>7 15 5 1 3</_>
								</rects>
								<tilted>0</tilted>
							</feature>
							<threshold>-0.00416196</threshold>
							<left_val>0.725227</left_val>
							<right_val>0.497346</right_val>
							<left_idx>-1</left_idx>
							<right_idx>-1</right_idx>
						</_>
					</_>
					<_>
						<!-- tree 17 -->
						<_>
							<feature>
								<rects>
									<_>2 1 18 4 -1</_>
									<_>11 1 9 2 2</_>
									<_>2 3 9 2 2</_>
								</rects>
								<tilted>0</tilted>
							</feature>
							<threshold>0.0338423</threshold>
							<left_val>0.534831</left_val>
							<right_val>-1</right_val>
							<left_idx>-1</left_idx>
							<right_idx>1</right_idx>
						</_>
						<_>
							<feature>
								<rects>
									<_>10 5 3 8 -1</_>
									<_>11 5 1 8 3</_>
								</rects>
								<tilted>0</tilted>
							</feature>
							<threshold>-0.00125646</threshold>
							<left_val>0.585191</left_val>
							<right_val>0.438417</right_val>
							<left_idx>-1</left_idx>
							<right_idx>-1</right_idx>
						</_>
					</_>
					<_>
						<!-- tree 18 -->
						<_>
							<feature>
								<rects>
									<_>0 1 18 4 -1</_>
									<_>0 1 9 2 2</_>
									<_>9 3 9 2 2</_>
								</rects>
								<tilted>0</tilted>
							</feature>
							<threshold>-0.0196352</threshold>
							<left_val>0.229783</left_val>
							<right_val>-1</right_val>
							<left_idx>-1</left_idx>
							<right_idx>1</right_idx>
						</_>
						<_>
							<feature>
								<rects>
									<_>7 5 3 8 -1</_>
									<_>8 5 1 8 3</_>
								</rects>
								<tilted>0</tilted>
							</feature>
							<threshold>-0.000996255</threshold>
							<left_val>0.629594</left_val>
							<right_val>0.41316</right_val>
							<left_idx>-1</left_idx>
							<right_idx>-1</right_idx>
						</_>
					</_>
					<_>
						<!-- tree 19 -->
						<_>
							<feature>
								<rects>
									<_>9 5 2 6 -1</_>
									<_>9 7 2 2 3</_>
								</rects>
								<tilted>0</tilted>
							</feature>
							<threshold>-0.0231271</threshold>
							<left_val>0.169546</left_val>
							<right_val>-1</right_val>
							<left_idx>-1</left_idx>
							<right_idx>1</right_idx>
						</_>
						<_>
							<feature>
								<rects>
									<_>10 8 5 2 -1</_>
									<_>10 9 5 1 2</_>
								</rects>
								<tilted>0</tilted>
							</feature>
							<threshold>0.0235257</threshold>
							<left_val>0.517413</left_val>
							<right_val>0.0595194</right_val>
							<left_idx>-1</left_idx>
							<right_idx>-1</right_idx>
						</_>
					</_>
					<_>
						<!-- tree 20 -->
						<_>
							<feature>
								<rects>
									<_>2 10 15 1 -1</_>
									<_>7 10 5 1 3</_>
								</rects>
								<tilted>0</tilted>
							</feature>
							<threshold>-0.0193565</threshold>
							<left_val>0.135725</left_val>
							<right_val>-1</right_val>
							<left_idx>-1</left_idx>
							<right_idx>1</right_idx>
						</_>
						<_>
							<feature>
								<rects>
									<_>2 7 2 6 -1</_>
									<_>2 9 2 2 3</_>
								</rects>
								<tilted>0</tilted>
							</feature>
							<threshold>-0.00417871</threshold>
							<left_val>0.299663</left_val>
							<right_val>0.57917</right_val>
							<left_idx>-1</left_idx>
							<right_idx>-1</right_idx>
						</_>
					</_>
					<_>
						<!-- tree 21 -->
						<_>
							<feature>
								<rects>
									<_>9 14 3 3 -1</_>
									<_>9 15 3 1 3</_>
								</rects>
								<tilted>0</tilted>
							</feature>
							<threshold>0.00314888</threshold>
							<left_val>-1</left_val>
							<right_val>0.659259</right_val>
							<left_idx>1</left_idx>
							<right_idx>-1</right_idx>
						</_>
						<_>
							<feature>
								<rects>
									<_>9 7 4 10 -1</_>
									<_>9 12 4 5 2</_>
								</rects>
								<tilted>0</tilted>
							</feature>
							<threshold>0.00739723</threshold>
							<left_val>0.530717</left_val>
							<right_val>0.379512</right_val>
							<left_idx>-1</left_idx>
							<right_idx>-1</right_idx>
						</_>
					</_>
					<_>
						<!-- tree 22 -->
						<_>
							<feature>
								<rects>
									<_>0 8 8 2 -1</_>
									<_>0 8 4 1 2</_>
									<_>4 9 4 1 2</_>
								</rects>
								<tilted>0</tilted>
							</feature>
							<threshold>7.19551e-006</threshold>
							<left_val>0.312831</left_val>
							<right_val>-1</right_val>
							<left_idx>-1</left_idx>
							<right_idx>1</right_idx>
						</_>
						<_>
							<feature>
								<rects>
									<_>5 9 10 8 -1</_>
									<_>5 9 5 4 2</_>
									<_>10 13 5 4 2</_>
								</rects>
								<tilted>0</tilted>
							</feature>
							<threshold>0.0471144</threshold>
							<left_val>0.553789</left_val>
							<right_val>0.102731</right_val>
							<left_idx>-1</left_idx>
							<right_idx>-1</right_idx>
						</_>
					</_>
					<_>
						<!-- tree 23 -->
						<_>
							<feature>
								<rects>
									<_>9 7 2 4 -1</_>
									<_>9 7 1 4 2</_>
								</rects>
								<tilted>0</tilted>
							</feature>
							<threshold>0.00728787</threshold>
							<left_val>0.466086</left_val>
							<right_val>-1</right_val>
							<left_idx>-1</left_idx>
							<right_idx>1</right_idx>
						</_>
						<_>
							<feature>
								<rects>
									<_>9 6 3 4 -1</_>
									<_>10 6 1 4 3</_>
								</rects>
								<tilted>0</tilted>
							</feature>
							<threshold>-0.00618875</threshold>
							<left_val>0.715886</left_val>
							<right_val>0.472445</right_val>
							<left_idx>-1</left_idx>
							<right_idx>-1</right_idx>
						</_>
					</_>
					<_>
						<!-- tree 24 -->
						<_>
							<feature>
								<rects>
									<_>8 3 2 1 -1</_>
									<_>9 3 1 1 2</_>
								</rects>
								<tilted>0</tilted>
							</feature>
							<threshold>0.00297573</threshold>
							<left_val>-1</left_val>
							<right_val>0.0593457</right_val>
							<left_idx>1</left_idx>
							<right_idx>-1</right_idx>
						</_>
						<_>
							<feature>
								<rects>
									<_>8 6 3 4 -1</_>
									<_>9 6 1 4 3</_>
								</rects>
								<tilted>0</tilted>
							</feature>
							<threshold>-0.00184498</threshold>
							<left_val>0.70273</left_val>
							<right_val>0.471873</right_val>
							<left_idx>-1</left_idx>
							<right_idx>-1</right_idx>
						</_>
					</_>
					<_>
						<!-- tree 25 -->
						<_>
							<feature>
								<rects>
									<_>12 0 4 14 -1</_>
									<_>14 0 2 7 2</_>
									<_>12 7 2 7 2</_>
								</rects>
								<tilted>0</tilted>
							</feature>
							<threshold>0.000102395</threshold>
							<left_val>0.589473</left_val>
							<right_val>-1</right_val>
							<left_idx>-1</left_idx>
							<right_idx>1</right_idx>
						</_>
						<_>
							<feature>
								<rects>
									<_>12 5 6 9 -1</_>
									<_>12 5 3 9 2</_>
								</rects>
								<tilted>0</tilted>
							</feature>
							<threshold>0.0024277</threshold>
							<left_val>0.486236</left_val>
							<right_val>0.524759</right_val>
							<left_idx>-1</left_idx>
							<right_idx>-1</right_idx>
						</_>
					</_>
					<_>
						<!-- tree 26 -->
						<_>
							<feature>
								<rects>
									<_>0 2 6 16 -1</_>
									<_>3 2 3 16 2</_>
								</rects>
								<tilted>0</tilted>
							</feature>
							<threshold>-0.0647513</threshold>
							<left_val>0.691747</left_val>
							<right_val>-1</right_val>
							<left_idx>-1</left_idx>
							<right_idx>1</right_idx>
						</_>
						<_>
							<feature>
								<rects>
									<_>1 12 4 2 -1</_>
									<_>1 13 4 1 2</_>
								</rects>
								<tilted>0</tilted>
							</feature>
							<threshold>0.000393802</threshold>
							<left_val>0.466962</left_val>
							<right_val>0.238241</right_val>
							<left_idx>-1</left_idx>
							<right_idx>-1</right_idx>
						</_>
					</_>
				</trees>
				<stage_threshold>12.5784</stage_threshold>
				<parent>4</parent>
				<next>-1</next>
			</_>
			<_>
				<!-- stage 6 -->
				<trees>
					<_>
						<!-- tree 0 -->
						<_>
							<feature>
								<rects>
									<_>7 7 6 1 -1</_>
									<_>9 7 2 1 3</_>
								</rects>
								<tilted>0</tilted>
							</feature>
							<threshold>0.00143974</threshold>
							<left_val>0.277347</left_val>
							<right_val>-1</right_val>
							<left_idx>-1</left_idx>
							<right_idx>1</right_idx>
						</_>
						<_>
							<feature>
								<rects>
									<_>8 3 4 9 -1</_>
									<_>8 6 4 3 3</_>
								</rects>
								<tilted>0</tilted>
							</feature>
							<threshold>-0.000540686</threshold>
							<left_val>0.742715</left_val>
							<right_val>0.247974</right_val>
							<left_idx>-1</left_idx>
							<right_idx>-1</right_idx>
						</_>
					</_>
					<_>
						<!-- tree 1 -->
						<_>
							<feature>
								<rects>
									<_>12 10 4 6 -1</_>
									<_>12 13 4 3 2</_>
								</rects>
								<tilted>0</tilted>
							</feature>
							<threshold>-7.1238e-006</threshold>
							<left_val>-1</left_val>
							<right_val>0.21995</right_val>
							<left_idx>1</left_idx>
							<right_idx>-1</right_idx>
						</_>
						<_>
							<feature>
								<rects>
									<_>8 1 8 16 -1</_>
									<_>12 1 4 8 2</_>
									<_>8 9 4 8 2</_>
								</rects>
								<tilted>0</tilted>
							</feature>
							<threshold>-0.0023661</threshold>
							<left_val>0.588999</left_val>
							<right_val>0.259572</right_val>
							<left_idx>-1</left_idx>
							<right_idx>-1</right_idx>
						</_>
					</_>
					<_>
						<!-- tree 2 -->
						<_>
							<feature>
								<rects>
									<_>4 6 3 6 -1</_>
									<_>4 9 3 3 2</_>
								</rects>
								<tilted>0</tilted>
							</feature>
							<threshold>0.00173433</threshold>
							<left_val>0.186013</left_val>
							<right_val>-1</right_val>
							<left_idx>-1</left_idx>
							<right_idx>1</right_idx>
						</_>
						<_>
							<feature>
								<rects>
									<_>1 3 6 2 -1</_>
									<_>4 3 3 2 2</_>
								</rects>
								<tilted>0</tilted>
							</feature>
							<threshold>0.00158746</threshold>
							<left_val>0.415187</left_val>
							<right_val>0.710347</right_val>
							<left_idx>-1</left_idx>
							<right_idx>-1</right_idx>
						</_>
					</_>
					<_>
						<!-- tree 3 -->
						<_>
							<feature>
								<rects>
									<_>9 8 3 12 -1</_>
									<_>9 12 3 4 3</_>
								</rects>
								<tilted>0</tilted>
							</feature>
							<threshold>0.00372856</threshold>
							<left_val>-1</left_val>
							<right_val>0.252797</right_val>
							<left_idx>1</left_idx>
							<right_idx>-1</right_idx>
						</_>
						<_>
							<feature>
								<rects>
									<_>10 9 7 10 -1</_>
									<_>10 14 7 5 2</_>
								</rects>
								<tilted>0</tilted>
							</feature>
							<threshold>-0.128838</threshold>
							<left_val>0.1393</left_val>
							<right_val>0.525451</right_val>
							<left_idx>-1</left_idx>
							<right_idx>-1</right_idx>
						</_>
					</_>
					<_>
						<!-- tree 4 -->
						<_>
							<feature>
								<rects>
									<_>3 9 7 10 -1</_>
									<_>3 14 7 5 2</_>
								</rects>
								<tilted>0</tilted>
							</feature>
							<threshold>0.00794122</threshold>
							<left_val>-1</left_val>
							<right_val>0.248773</right_val>
							<left_idx>1</left_idx>
							<right_idx>-1</right_idx>
						</_>
						<_>
							<feature>
								<rects>
									<_>7 5 1 14 -1</_>
									<_>7 12 1 7 2</_>
								</rects>
								<tilted>0</tilted>
							</feature>
							<threshold>-0.0126617</threshold>
							<left_val>0.27107</left_val>
							<right_val>0.661884</right_val>
							<left_idx>-1</left_idx>
							<right_idx>-1</right_idx>
						</_>
					</_>
					<_>
						<!-- tree 5 -->
						<_>
							<feature>
								<rects>
									<_>13 14 1 6 -1</_>
									<_>13 16 1 2 3</_>
								</rects>
								<tilted>0</tilted>
							</feature>
							<threshold>3.01468e-005</threshold>
							<left_val>0.381283</left_val>
							<right_val>-1</right_val>
							<left_idx>-1</left_idx>
							<right_idx>1</right_idx>
						</_>
						<_>
							<feature>
								<rects>
									<_>14 12 3 6 -1</_>
									<_>14 14 3 2 3</_>
								</rects>
								<tilted>0</tilted>
							</feature>
							<threshold>-0.0163302</threshold>
							<left_val>0.232643</left_val>
							<right_val>0.526301</right_val>
							<left_idx>-1</left_idx>
							<right_idx>-1</right_idx>
						</_>
					</_>
					<_>
						<!-- tree 6 -->
						<_>
							<feature>
								<rects>
									<_>6 14 1 6 -1</_>
									<_>6 16 1 2 3</_>
								</rects>
								<tilted>0</tilted>
							</feature>
							<threshold>1.46228e-005</threshold>
							<left_val>0.429333</left_val>
							<right_val>-1</right_val>
							<left_idx>-1</left_idx>
							<right_idx>1</right_idx>
						</_>
						<_>
							<feature>
								<rects>
									<_>3 12 3 6 -1</_>
									<_>3 14 3 2 3</_>
								</rects>
								<tilted>0</tilted>
							</feature>
							<threshold>-0.0208587</threshold>
							<left_val>0.16004</left_val>
							<right_val>0.678231</right_val>
							<left_idx>-1</left_idx>
							<right_idx>-1</right_idx>
						</_>
					</_>
					<_>
						<!-- tree 7 -->
						<_>
							<feature>
								<rects>
									<_>8 13 5 3 -1</_>
									<_>8 14 5 1 3</_>
								</rects>
								<tilted>0</tilted>
							</feature>
							<threshold>0.00281946</threshold>
							<left_val>-1</left_val>
							<right_val>0.667929</right_val>
							<left_idx>1</left_idx>
							<right_idx>-1</right_idx>
						</_>
						<_>
							<feature>
								<rects>
									<_>9 14 2 3 -1</_>
									<_>9 15 2 1 3</_>
								</rects>
								<tilted>0</tilted>
							</feature>
							<threshold>0.00378994</threshold>
							<left_val>0.458771</left_val>
							<right_val>0.717624</right_val>
							<left_idx>-1</left_idx>
							<right_idx>-1</right_idx>
						</_>
					</_>
					<_>
						<!-- tree 8 -->
						<_>
							<feature>
								<rects>
									<_>5 1 10 8 -1</_>
									<_>5 1 5 4 2</_>
									<_>10 5 5 4 2</_>
								</rects>
								<tilted>0</tilted>
							</feature>
							<threshold>0.0353446</threshold>
							<left_val>-1</left_val>
							<right_val>0.186408</right_val>
							<left_idx>1</left_idx>
							<right_idx>-1</right_idx>
						</_>
						<_>
							<feature>
								<rects>
									<_>6 4 5 4 -1</_>
									<_>6 6 5 2 2</_>
								</rects>
								<tilted>0</tilted>
							</feature>
							<threshold>-0.00115716</threshold>
							<left_val>0.553826</left_val>
							<right_val>0.315045</right_val>
							<left_idx>-1</left_idx>
							<right_idx>-1</right_idx>
						</_>
					</_>
					<_>
						<!-- tree 9 -->
						<_>
							<feature>
								<rects>
									<_>1 10 18 1 -1</_>
									<_>7 10 6 1 3</_>
								</rects>
								<tilted>0</tilted>
							</feature>
							<threshold>-0.00587428</threshold>
							<left_val>0.282879</left_val>
							<right_val>-1</right_val>
							<left_idx>-1</left_idx>
							<right_idx>1</right_idx>
						</_>
						<_>
							<feature>
								<rects>
									<_>11 10 4 3 -1</_>
									<_>11 10 2 3 2</_>
								</rects>
								<tilted>0</tilted>
							</feature>
							<threshold>-1.52018e-005</threshold>
							<left_val>0.587022</left_val>
							<right_val>0.370482</right_val>
							<left_idx>-1</left_idx>
							<right_idx>-1</right_idx>
						</_>
					</_>
					<_>
						<!-- tree 10 -->
						<_>
							<feature>
								<rects>
									<_>5 11 6 1 -1</_>
									<_>7 11 2 1 3</_>
								</rects>
								<tilted>0</tilted>
							</feature>
							<threshold>-0.000226819</threshold>
							<left_val>-1</left_val>
							<right_val>0.421893</right_val>
							<left_idx>1</left_idx>
							<right_idx>-1</right_idx>
						</_>
						<_>
							<feature>
								<rects>
									<_>3 13 2 3 -1</_>
									<_>3 14 2 1 3</_>
								</rects>
								<tilted>0</tilted>
							</feature>
							<threshold>0.00378457</threshold>
							<left_val>0.6667</left_val>
							<right_val>0.246118</right_val>
							<left_idx>-1</left_idx>
							<right_idx>-1</right_idx>
						</_>
					</_>
					<_>
						<!-- tree 11 -->
						<_>
							<feature>
								<rects>
									<_>12 12 3 4 -1</_>
									<_>12 14 3 2 2</_>
								</rects>
								<tilted>0</tilted>
							</feature>
							<threshold>-8.5296e-005</threshold>
							<left_val>-1</left_val>
							<right_val>0.355759</right_val>
							<left_idx>1</left_idx>
							<right_idx>-1</right_idx>
						</_>
						<_>
							<feature>
								<rects>
									<_>11 10 5 6 -1</_>
									<_>11 12 5 2 3</_>
								</rects>
								<tilted>0</tilted>
							</feature>
							<threshold>-0.0443949</threshold>
							<left_val>0.166555</left_val>
							<right_val>0.523485</right_val>
							<left_idx>-1</left_idx>
							<right_idx>-1</right_idx>
						</_>
					</_>
					<_>
						<!-- tree 12 -->
						<_>
							<feature>
								<rects>
									<_>0 8 16 2 -1</_>
									<_>0 9 16 1 2</_>
								</rects>
								<tilted>0</tilted>
							</feature>
							<threshold>0.0010126</threshold>
							<left_val>0.288461</left_val>
							<right_val>-1</right_val>
							<left_idx>-1</left_idx>
							<right_idx>1</right_idx>
						</_>
						<_>
							<feature>
								<rects>
									<_>2 1 3 4 -1</_>
									<_>2 3 3 2 2</_>
								</rects>
								<tilted>0</tilted>
							</feature>
							<threshold>-0.00763278</threshold>
							<left_val>0.296934</left_val>
							<right_val>0.608011</right_val>
							<left_idx>-1</left_idx>
							<right_idx>-1</right_idx>
						</_>
					</_>
					<_>
						<!-- tree 13 -->
						<_>
							<feature>
								<rects>
									<_>9 7 3 3 -1</_>
									<_>10 7 1 3 3</_>
								</rects>
								<tilted>0</tilted>
							</feature>
							<threshold>0.00403304</threshold>
							<left_val>0.453639</left_val>
							<right_val>-1</right_val>
							<left_idx>-1</left_idx>
							<right_idx>1</right_idx>
						</_>
						<_>
							<feature>
								<rects>
									<_>5 6 12 6 -1</_>
									<_>9 6 4 6 3</_>
								</rects>
								<tilted>0</tilted>
							</feature>
							<threshold>0.136767</threshold>
							<left_val>0.517726</left_val>
							<right_val>0.144918</right_val>
							<left_idx>-1</left_idx>
							<right_idx>-1</right_idx>
						</_>
					</_>
					<_>
						<!-- tree 14 -->
						<_>
							<feature>
								<rects>
									<_>8 7 3 3 -1</_>
									<_>9 7 1 3 3</_>
								</rects>
								<tilted>0</tilted>
							</feature>
							<threshold>-0.00500605</threshold>
							<left_val>0.761691</left_val>
							<right_val>-1</right_val>
							<left_idx>-1</left_idx>
							<right_idx>1</right_idx>
						</_>
						<_>
							<feature>
								<rects>
									<_>3 6 12 6 -1</_>
									<_>7 6 4 6 3</_>
								</rects>
								<tilted>0</tilted>
							</feature>
							<threshold>-0.0124758</threshold>
							<left_val>0.215971</left_val>
							<right_val>0.546019</right_val>
							<left_idx>-1</left_idx>
							<right_idx>-1</right_idx>
						</_>
					</_>
					<_>
						<!-- tree 15 -->
						<_>
							<feature>
								<rects>
									<_>10 5 6 5 -1</_>
									<_>12 5 2 5 3</_>
								</rects>
								<tilted>0</tilted>
							</feature>
							<threshold>-0.000940123</threshold>
							<left_val>-1</left_val>
							<right_val>0.39263</right_val>
							<left_idx>1</left_idx>
							<right_idx>-1</right_idx>
						</_>
						<_>
							<feature>
								<rects>
									<_>5 7 10 2 -1</_>
									<_>5 7 5 2 2</_>
								</rects>
								<tilted>0</tilted>
							</feature>
							<threshold>-0.012192</threshold>
							<left_val>0.347888</left_val>
							<right_val>0.554266</right_val>
							<left_idx>-1</left_idx>
							<right_idx>-1</right_idx>
						</_>
					</_>
					<_>
						<!-- tree 16 -->
						<_>
							<feature>
								<rects>
									<_>4 5 6 5 -1</_>
									<_>6 5 2 5 3</_>
								</rects>
								<tilted>0</tilted>
							</feature>
							<threshold>-0.000549595</threshold>
							<left_val>0.606428</left_val>
							<right_val>-1</right_val>
							<left_idx>-1</left_idx>
							<right_idx>1</right_idx>
						</_>
						<_>
							<feature>
								<rects>
									<_>9 3 2 10 -1</_>
									<_>9 8 2 5 2</_>
								</rects>
								<tilted>0</tilted>
							</feature>
							<threshold>-0.000218024</threshold>
							<left_val>0.569741</left_val>
							<right_val>0.177971</right_val>
							<left_idx>-1</left_idx>
							<right_idx>-1</right_idx>
						</_>
					</_>
					<_>
						<!-- tree 17 -->
						<_>
							<feature>
								<rects>
									<_>3 1 16 2 -1</_>
									<_>11 1 8 1 2</_>
									<_>3 2 8 1 2</_>
								</rects>
								<tilted>0</tilted>
							</feature>
							<threshold>0.00691158</threshold>
							<left_val>0.537937</left_val>
							<right_val>-1</right_val>
							<left_idx>-1</left_idx>
							<right_idx>1</right_idx>
						</_>
						<_>
							<feature>
								<rects>
									<_>9 9 3 2 -1</_>
									<_>9 10 3 1 2</_>
								</rects>
								<tilted>0</tilted>
							</feature>
							<threshold>-0.000976317</threshold>
							<left_val>0.332784</left_val>
							<right_val>0.546153</right_val>
							<left_idx>-1</left_idx>
							<right_idx>-1</right_idx>
						</_>
					</_>
					<_>
						<!-- tree 18 -->
						<_>
							<feature>
								<rects>
									<_>1 1 16 2 -1</_>
									<_>1 1 8 1 2</_>
									<_>9 2 8 1 2</_>
								</rects>
								<tilted>0</tilted>
							</feature>
							<threshold>-0.00878702</threshold>
							<left_val>0.211616</left_val>
							<right_val>-1</right_val>
							<left_idx>-1</left_idx>
							<right_idx>1</right_idx>
						</_>
						<_>
							<feature>
								<rects>
									<_>8 14 1 3 -1</_>
									<_>8 15 1 1 3</_>
								</rects>
								<tilted>0</tilted>
							</feature>
							<threshold>-0.0016761</threshold>
							<left_val>0.663582</left_val>
							<right_val>0.436586</right_val>
							<left_idx>-1</left_idx>
							<right_idx>-1</right_idx>
						</_>
					</_>
					<_>
						<!-- tree 19 -->
						<_>
							<feature>
								<rects>
									<_>4 5 12 10 -1</_>
									<_>10 5 6 5 2</_>
									<_>4 10 6 5 2</_>
								</rects>
								<tilted>0</tilted>
							</feature>
							<threshold>-0.0556949</threshold>
							<left_val>-1</left_val>
							<right_val>0.538742</right_val>
							<left_idx>1</left_idx>
							<right_idx>-1</right_idx>
						</_>
						<_>
							<feature>
								<rects>
									<_>7 13 6 6 -1</_>
									<_>10 13 3 3 2</_>
									<_>7 16 3 3 2</_>
								</rects>
								<tilted>0</tilted>
							</feature>
							<threshold>-0.0198444</threshold>
							<left_val>0.16028</left_val>
							<right_val>0.533046</right_val>
							<left_idx>-1</left_idx>
							<right_idx>-1</right_idx>
						</_>
					</_>
					<_>
						<!-- tree 20 -->
						<_>
							<feature>
								<rects>
									<_>8 9 3 2 -1</_>
									<_>8 10 3 1 2</_>
								</rects>
								<tilted>0</tilted>
							</feature>
							<threshold>-0.000747516</threshold>
							<left_val>0.291748</left_val>
							<right_val>-1</right_val>
							<left_idx>-1</left_idx>
							<right_idx>1</right_idx>
						</_>
						<_>
							<feature>
								<rects>
									<_>7 2 6 4 -1</_>
									<_>9 2 2 4 3</_>
								</rects>
								<tilted>0</tilted>
							</feature>
							<threshold>0.0230329</threshold>
							<left_val>0.560812</left_val>
							<right_val>0.199798</right_val>
							<left_idx>-1</left_idx>
							<right_idx>-1</right_idx>
						</_>
					</_>
					<_>
						<!-- tree 21 -->
						<_>
							<feature>
								<rects>
									<_>6 6 9 3 -1</_>
									<_>6 7 9 1 3</_>
								</rects>
								<tilted>0</tilted>
							</feature>
							<threshold>-0.00307003</threshold>
							<left_val>-1</left_val>
							<right_val>0.393831</right_val>
							<left_idx>1</left_idx>
							<right_idx>-1</right_idx>
						</_>
						<_>
							<feature>
								<rects>
									<_>10 7 6 1 -1</_>
									<_>12 7 2 1 3</_>
								</rects>
								<tilted>0</tilted>
							</feature>
							<threshold>-0.00116368</threshold>
							<left_val>0.575744</left_val>
							<right_val>0.423946</right_val>
							<left_idx>-1</left_idx>
							<right_idx>-1</right_idx>
						</_>
					</_>
					<_>
						<!-- tree 22 -->
						<_>
							<feature>
								<rects>
									<_>0 0 18 6 -1</_>
									<_>6 0 6 6 3</_>
								</rects>
								<tilted>0</tilted>
							</feature>
							<threshold>0.224643</threshold>
							<left_val>-1</left_val>
							<right_val>0.767655</right_val>
							<left_idx>1</left_idx>
							<right_idx>-1</right_idx>
						</_>
						<_>
							<feature>
								<rects>
									<_>6 10 2 6 -1</_>
									<_>6 13 2 3 2</_>
								</rects>
								<tilted>0</tilted>
							</feature>
							<threshold>0.00144121</threshold>
							<left_val>0.535387</left_val>
							<right_val>0.251478</right_val>
							<left_idx>-1</left_idx>
							<right_idx>-1</right_idx>
						</_>
					</_>
					<_>
						<!-- tree 23 -->
						<_>
							<feature>
								<rects>
									<_>11 12 3 6 -1</_>
									<_>11 15 3 3 2</_>
								</rects>
								<tilted>0</tilted>
							</feature>
							<threshold>-0.0300112</threshold>
							<left_val>0.23649</left_val>
							<right_val>-1</right_val>
							<left_idx>-1</left_idx>
							<right_idx>1</right_idx>
						</_>
						<_>
							<feature>
								<rects>
									<_>4 4 12 12 -1</_>
									<_>10 4 6 6 2</_>
									<_>4 10 6 6 2</_>
								</rects>
								<tilted>0</tilted>
							</feature>
							<threshold>-0.053079</threshold>
							<left_val>0.238586</left_val>
							<right_val>0.541466</right_val>
							<left_idx>-1</left_idx>
							<right_idx>-1</right_idx>
						</_>
					</_>
					<_>
						<!-- tree 24 -->
						<_>
							<feature>
								<rects>
									<_>1 2 3 6 -1</_>
									<_>2 2 1 6 3</_>
								</rects>
								<tilted>0</tilted>
							</feature>
							<threshold>0.00208009</threshold>
							<left_val>-1</left_val>
							<right_val>0.651161</right_val>
							<left_idx>1</left_idx>
							<right_idx>-1</right_idx>
						</_>
						<_>
							<feature>
								<rects>
									<_>1 5 3 7 -1</_>
									<_>2 5 1 7 3</_>
								</rects>
								<tilted>0</tilted>
							</feature>
							<threshold>-0.00407382</threshold>
							<left_val>0.603041</left_val>
							<right_val>0.35877</right_val>
							<left_idx>-1</left_idx>
							<right_idx>-1</right_idx>
						</_>
					</_>
					<_>
						<!-- tree 25 -->
						<_>
							<feature>
								<rects>
									<_>4 13 12 4 -1</_>
									<_>10 13 6 2 2</_>
									<_>4 15 6 2 2</_>
								</rects>
								<tilted>0</tilted>
							</feature>
							<threshold>-0.0195294</threshold>
							<left_val>-1</left_val>
							<right_val>0.542359</right_val>
							<left_idx>1</left_idx>
							<right_idx>-1</right_idx>
						</_>
						<_>
							<feature>
								<rects>
									<_>3 3 17 12 -1</_>
									<_>3 9 17 6 2</_>
								</rects>
								<tilted>0</tilted>
							</feature>
							<threshold>-0.0533095</threshold>
							<left_val>0.236095</left_val>
							<right_val>0.540176</right_val>
							<left_idx>-1</left_idx>
							<right_idx>-1</right_idx>
						</_>
					</_>
					<_>
						<!-- tree 26 -->
						<_>
							<feature>
								<rects>
									<_>3 3 14 12 -1</_>
									<_>3 3 7 6 2</_>
									<_>10 9 7 6 2</_>
								</rects>
								<tilted>0</tilted>
							</feature>
							<threshold>-0.0348496</threshold>
							<left_val>0.283699</left_val>
							<right_val>-1</right_val>
							<left_idx>-1</left_idx>
							<right_idx>1</right_idx>
						</_>
						<_>
							<feature>
								<rects>
									<_>2 11 16 9 -1</_>
									<_>2 14 16 3 3</_>
								</rects>
								<tilted>0</tilted>
							</feature>
							<threshold>-0.126585</threshold>
							<left_val>0.181352</left_val>
							<right_val>0.542105</right_val>
							<left_idx>-1</left_idx>
							<right_idx>-1</right_idx>
						</_>
					</_>
					<_>
						<!-- tree 27 -->
						<_>
							<feature>
								<rects>
									<_>9 14 3 6 -1</_>
									<_>9 17 3 3 2</_>
								</rects>
								<tilted>0</tilted>
							</feature>
							<threshold>7.33251e-006</threshold>
							<left_val>0.398037</left_val>
							<right_val>-1</right_val>
							<left_idx>-1</left_idx>
							<right_idx>1</right_idx>
						</_>
						<_>
							<feature>
								<rects>
									<_>8 14 4 6 -1</_>
									<_>10 14 2 3 2</_>
									<_>8 17 2 3 2</_>
								</rects>
								<tilted>0</tilted>
							</feature>
							<threshold>-0.0118439</threshold>
							<left_val>0.261638</left_val>
							<right_val>0.523773</right_val>
							<left_idx>-1</left_idx>
							<right_idx>-1</right_idx>
						</_>
					</_>
					<_>
						<!-- tree 28 -->
						<_>
							<feature>
								<rects>
									<_>6 2 6 1 -1</_>
									<_>8 2 2 1 3</_>
								</rects>
								<tilted>0</tilted>
							</feature>
							<threshold>-0.00484707</threshold>
							<left_val>0.243811</left_val>
							<right_val>-1</right_val>
							<left_idx>-1</left_idx>
							<right_idx>1</right_idx>
						</_>
						<_>
							<feature>
								<rects>
									<_>9 5 2 5 -1</_>
									<_>10 5 1 5 2</_>
								</rects>
								<tilted>0</tilted>
							</feature>
							<threshold>0.0081694</threshold>
							<left_val>0.532715</left_val>
							<right_val>0.819038</right_val>
							<left_idx>-1</left_idx>
							<right_idx>-1</right_idx>
						</_>
					</_>
					<_>
						<!-- tree 29 -->
						<_>
							<feature>
								<rects>
									<_>9 8 3 5 -1</_>
									<_>10 8 1 5 3</_>
								</rects>
								<tilted>0</tilted>
							</feature>
							<threshold>-0.00647168</threshold>
							<left_val>-1</left_val>
							<right_val>0.467969</right_val>
							<left_idx>1</left_idx>
							<right_idx>-1</right_idx>
						</_>
						<_>
							<feature>
								<rects>
									<_>9 12 6 1 -1</_>
									<_>9 12 3 1 2</_>
								</rects>
								<tilted>0</tilted>
							</feature>
							<threshold>-1.51885e-005</threshold>
							<left_val>0.556391</left_val>
							<right_val>0.436759</right_val>
							<left_idx>-1</left_idx>
							<right_idx>-1</right_idx>
						</_>
					</_>
					<_>
						<!-- tree 30 -->
						<_>
							<feature>
								<rects>
									<_>8 8 3 5 -1</_>
									<_>9 8 1 5 3</_>
								</rects>
								<tilted>0</tilted>
							</feature>
							<threshold>0.00306967</threshold>
							<left_val>-1</left_val>
							<right_val>0.666435</right_val>
							<left_idx>1</left_idx>
							<right_idx>-1</right_idx>
						</_>
						<_>
							<feature>
								<rects>
									<_>6 10 4 3 -1</_>
									<_>8 10 2 3 2</_>
								</rects>
								<tilted>0</tilted>
							</feature>
							<threshold>-0.000162967</threshold>
							<left_val>0.559461</left_val>
							<right_val>0.304271</right_val>
							<left_idx>-1</left_idx>
							<right_idx>-1</right_idx>
						</_>
					</_>
				</trees>
				<stage_threshold>14.5467</stage_threshold>
				<parent>5</parent>
				<next>-1</next>
			</_>
			<_>
				<!-- stage 7 -->
				<trees>
					<_>
						<!-- tree 0 -->
						<_>
							<feature>
								<rects>
									<_>0 4 20 6 -1</_>
									<_>0 6 20 2 3</_>
								</rects>
								<tilted>0</tilted>
							</feature>
							<threshold>-0.00982759</threshold>
							<left_val>-1</left_val>
							<right_val>0.211602</right_val>
							<left_idx>1</left_idx>
							<right_idx>-1</right_idx>
						</_>
						<_>
							<feature>
								<rects>
									<_>1 3 8 6 -1</_>
									<_>1 3 4 3 2</_>
									<_>5 6 4 3 2</_>
								</rects>
								<tilted>0</tilted>
							</feature>
							<threshold>-0.00416939</threshold>
							<left_val>0.692469</left_val>
							<right_val>0.304378</right_val>
							<left_idx>-1</left_idx>
							<right_idx>-1</right_idx>
						</_>
					</_>
					<_>
						<!-- tree 1 -->
						<_>
							<feature>
								<rects>
									<_>7 15 6 4 -1</_>
									<_>7 17 6 2 2</_>
								</rects>
								<tilted>0</tilted>
							</feature>
							<threshold>0.000353413</threshold>
							<left_val>0.318329</left_val>
							<right_val>-1</right_val>
							<left_idx>-1</left_idx>
							<right_idx>1</right_idx>
						</_>
						<_>
							<feature>
								<rects>
									<_>3 10 14 10 -1</_>
									<_>3 15 14 5 2</_>
								</rects>
								<tilted>0</tilted>
							</feature>
							<threshold>0.00480545</threshold>
							<left_val>0.545656</left_val>
							<right_val>0.252227</right_val>
							<left_idx>-1</left_idx>
							<right_idx>-1</right_idx>
						</_>
					</_>
					<_>
						<!-- tree 2 -->
						<_>
							<feature>
								<rects>
									<_>6 4 4 4 -1</_>
									<_>8 4 2 4 2</_>
								</rects>
								<tilted>0</tilted>
							</feature>
							<threshold>0.000210712</threshold>
							<left_val>0.290262</left_val>
							<right_val>-1</right_val>
							<left_idx>-1</left_idx>
							<right_idx>1</right_idx>
						</_>
						<_>
							<feature>
								<rects>
									<_>0 4 20 10 -1</_>
									<_>0 9 20 5 2</_>
								</rects>
								<tilted>0</tilted>
							</feature>
							<threshold>-0.00283189</threshold>
							<left_val>0.313046</left_val>
							<right_val>0.688494</right_val>
							<left_idx>-1</left_idx>
							<right_idx>-1</right_idx>
						</_>
					</_>
					<_>
						<!-- tree 3 -->
						<_>
							<feature>
								<rects>
									<_>9 4 2 14 -1</_>
									<_>9 11 2 7 2</_>
								</rects>
								<tilted>0</tilted>
							</feature>
							<threshold>-7.56337e-006</threshold>
							<left_val>-1</left_val>
							<right_val>0.296247</right_val>
							<left_idx>1</left_idx>
							<right_idx>-1</right_idx>
						</_>
						<_>
							<feature>
								<rects>
									<_>2 0 16 4 -1</_>
									<_>2 2 16 2 2</_>
								</rects>
								<tilted>0</tilted>
							</feature>
							<threshold>-0.000828881</threshold>
							<left_val>0.309963</left_val>
							<right_val>0.575252</right_val>
							<left_idx>-1</left_idx>
							<right_idx>-1</right_idx>
						</_>
					</_>
					<_>
						<!-- tree 4 -->
						<_>
							<feature>
								<rects>
									<_>4 12 6 8 -1</_>
									<_>4 12 3 4 2</_>
									<_>7 16 3 4 2</_>
								</rects>
								<tilted>0</tilted>
							</feature>
							<threshold>0.00162093</threshold>
							<left_val>0.39932</left_val>
							<right_val>-1</right_val>
							<left_idx>-1</left_idx>
							<right_idx>1</right_idx>
						</_>
						<_>
							<feature>
								<rects>
									<_>0 5 6 7 -1</_>
									<_>3 5 3 7 2</_>
								</rects>
								<tilted>0</tilted>
							</feature>
							<threshold>0.0091339</threshold>
							<left_val>0.482737</left_val>
